tree
version=v4
num_class=5
num_tree_per_iteration=5
label_index=0
max_feature_idx=756
objective=multiclass num_class:5
feature_names=Column_0 Column_1 Column_2 Column_3 Column_4 Column_5 Column_6 Column_7 Column_8 Column_9 Column_10 Column_11 Column_12 Column_13 Column_14 Column_15 Column_16 Column_17 Column_18 Column_19 Column_20 Column_21 Column_22 Column_23 Column_24 Column_25 Column_26 Column_27 Column_28 Column_29 Column_30 Column_31 Column_32 Column_33 Column_34 Column_35 Column_36 Column_37 Column_38 Column_39 Column_40 Column_41 Column_42 Column_43 Column_44 Column_45 Column_46 Column_47 Column_48 Column_49 Column_50 Column_51 Column_52 Column_53 Column_54 Column_55 Column_56 Column_57 Column_58 Column_59 Column_60 Column_61 Column_62 Column_63 Column_64 Column_65 Column_66 Column_67 Column_68 Column_69 Column_70 Column_71 Column_72 Column_73 Column_74 Column_75 Column_76 Column_77 Column_78 Column_79 Column_80 Column_81 Column_82 Column_83 Column_84 Column_85 Column_86 Column_87 Column_88 Column_89 Column_90 Column_91 Column_92 Column_93 Column_94 Column_95 Column_96 Column_97 Column_98 Column_99 Column_100 Column_101 Column_102 Column_103 Column_104 Column_105 Column_106 Column_107 Column_108 Column_109 Column_110 Column_111 Column_112 Column_113 Column_114 Column_115 Column_116 Column_117 Column_118 Column_119 Column_120 Column_121 Column_122 Column_123 Column_124 Column_125 Column_126 Column_127 Column_128 Column_129 Column_130 Column_131 Column_132 Column_133 Column_134 Column_135 Column_136 Column_137 Column_138 Column_139 Column_140 Column_141 Column_142 Column_143 Column_144 Column_145 Column_146 Column_147 Column_148 Column_149 Column_150 Column_151 Column_152 Column_153 Column_154 Column_155 Column_156 Column_157 Column_158 Column_159 Column_160 Column_161 Column_162 Column_163 Column_164 Column_165 Column_166 Column_167 Column_168 Column_169 Column_170 Column_171 Column_172 Column_173 Column_174 Column_175 Column_176 Column_177 Column_178 Column_179 Column_180 Column_181 Column_182 Column_183 Column_184 Column_185 Column_186 Column_187 Column_188 Column_189 Column_190 Column_191 Column_192 Column_193 Column_194 Column_195 Column_196 Column_197 Column_198 Column_199 Column_200 Column_201 Column_202 Column_203 Column_204 Column_205 Column_206 Column_207 Column_208 Column_209 Column_210 Column_211 Column_212 Column_213 Column_214 Column_215 Column_216 Column_217 Column_218 Column_219 Column_220 Column_221 Column_222 Column_223 Column_224 Column_225 Column_226 Column_227 Column_228 Column_229 Column_230 Column_231 Column_232 Column_233 Column_234 Column_235 Column_236 Column_237 Column_238 Column_239 Column_240 Column_241 Column_242 Column_243 Column_244 Column_245 Column_246 Column_247 Column_248 Column_249 Column_250 Column_251 Column_252 Column_253 Column_254 Column_255 Column_256 Column_257 Column_258 Column_259 Column_260 Column_261 Column_262 Column_263 Column_264 Column_265 Column_266 Column_267 Column_268 Column_269 Column_270 Column_271 Column_272 Column_273 Column_274 Column_275 Column_276 Column_277 Column_278 Column_279 Column_280 Column_281 Column_282 Column_283 Column_284 Column_285 Column_286 Column_287 Column_288 Column_289 Column_290 Column_291 Column_292 Column_293 Column_294 Column_295 Column_296 Column_297 Column_298 Column_299 Column_300 Column_301 Column_302 Column_303 Column_304 Column_305 Column_306 Column_307 Column_308 Column_309 Column_310 Column_311 Column_312 Column_313 Column_314 Column_315 Column_316 Column_317 Column_318 Column_319 Column_320 Column_321 Column_322 Column_323 Column_324 Column_325 Column_326 Column_327 Column_328 Column_329 Column_330 Column_331 Column_332 Column_333 Column_334 Column_335 Column_336 Column_337 Column_338 Column_339 Column_340 Column_341 Column_342 Column_343 Column_344 Column_345 Column_346 Column_347 Column_348 Column_349 Column_350 Column_351 Column_352 Column_353 Column_354 Column_355 Column_356 Column_357 Column_358 Column_359 Column_360 Column_361 Column_362 Column_363 Column_364 Column_365 Column_366 Column_367 Column_368 Column_369 Column_370 Column_371 Column_372 Column_373 Column_374 Column_375 Column_376 Column_377 Column_378 Column_379 Column_380 Column_381 Column_382 Column_383 Column_384 Column_385 Column_386 Column_387 Column_388 Column_389 Column_390 Column_391 Column_392 Column_393 Column_394 Column_395 Column_396 Column_397 Column_398 Column_399 Column_400 Column_401 Column_402 Column_403 Column_404 Column_405 Column_406 Column_407 Column_408 Column_409 Column_410 Column_411 Column_412 Column_413 Column_414 Column_415 Column_416 Column_417 Column_418 Column_419 Column_420 Column_421 Column_422 Column_423 Column_424 Column_425 Column_426 Column_427 Column_428 Column_429 Column_430 Column_431 Column_432 Column_433 Column_434 Column_435 Column_436 Column_437 Column_438 Column_439 Column_440 Column_441 Column_442 Column_443 Column_444 Column_445 Column_446 Column_447 Column_448 Column_449 Column_450 Column_451 Column_452 Column_453 Column_454 Column_455 Column_456 Column_457 Column_458 Column_459 Column_460 Column_461 Column_462 Column_463 Column_464 Column_465 Column_466 Column_467 Column_468 Column_469 Column_470 Column_471 Column_472 Column_473 Column_474 Column_475 Column_476 Column_477 Column_478 Column_479 Column_480 Column_481 Column_482 Column_483 Column_484 Column_485 Column_486 Column_487 Column_488 Column_489 Column_490 Column_491 Column_492 Column_493 Column_494 Column_495 Column_496 Column_497 Column_498 Column_499 Column_500 Column_501 Column_502 Column_503 Column_504 Column_505 Column_506 Column_507 Column_508 Column_509 Column_510 Column_511 Column_512 Column_513 Column_514 Column_515 Column_516 Column_517 Column_518 Column_519 Column_520 Column_521 Column_522 Column_523 Column_524 Column_525 Column_526 Column_527 Column_528 Column_529 Column_530 Column_531 Column_532 Column_533 Column_534 Column_535 Column_536 Column_537 Column_538 Column_539 Column_540 Column_541 Column_542 Column_543 Column_544 Column_545 Column_546 Column_547 Column_548 Column_549 Column_550 Column_551 Column_552 Column_553 Column_554 Column_555 Column_556 Column_557 Column_558 Column_559 Column_560 Column_561 Column_562 Column_563 Column_564 Column_565 Column_566 Column_567 Column_568 Column_569 Column_570 Column_571 Column_572 Column_573 Column_574 Column_575 Column_576 Column_577 Column_578 Column_579 Column_580 Column_581 Column_582 Column_583 Column_584 Column_585 Column_586 Column_587 Column_588 Column_589 Column_590 Column_591 Column_592 Column_593 Column_594 Column_595 Column_596 Column_597 Column_598 Column_599 Column_600 Column_601 Column_602 Column_603 Column_604 Column_605 Column_606 Column_607 Column_608 Column_609 Column_610 Column_611 Column_612 Column_613 Column_614 Column_615 Column_616 Column_617 Column_618 Column_619 Column_620 Column_621 Column_622 Column_623 Column_624 Column_625 Column_626 Column_627 Column_628 Column_629 Column_630 Column_631 Column_632 Column_633 Column_634 Column_635 Column_636 Column_637 Column_638 Column_639 Column_640 Column_641 Column_642 Column_643 Column_644 Column_645 Column_646 Column_647 Column_648 Column_649 Column_650 Column_651 Column_652 Column_653 Column_654 Column_655 Column_656 Column_657 Column_658 Column_659 Column_660 Column_661 Column_662 Column_663 Column_664 Column_665 Column_666 Column_667 Column_668 Column_669 Column_670 Column_671 Column_672 Column_673 Column_674 Column_675 Column_676 Column_677 Column_678 Column_679 Column_680 Column_681 Column_682 Column_683 Column_684 Column_685 Column_686 Column_687 Column_688 Column_689 Column_690 Column_691 Column_692 Column_693 Column_694 Column_695 Column_696 Column_697 Column_698 Column_699 Column_700 Column_701 Column_702 Column_703 Column_704 Column_705 Column_706 Column_707 Column_708 Column_709 Column_710 Column_711 Column_712 Column_713 Column_714 Column_715 Column_716 Column_717 Column_718 Column_719 Column_720 Column_721 Column_722 Column_723 Column_724 Column_725 Column_726 Column_727 Column_728 Column_729 Column_730 Column_731 Column_732 Column_733 Column_734 Column_735 Column_736 Column_737 Column_738 Column_739 Column_740 Column_741 Column_742 Column_743 Column_744 Column_745 Column_746 Column_747 Column_748 Column_749 Column_750 Column_751 Column_752 Column_753 Column_754 Column_755 Column_756
feature_infos=[-281.37835693359375:414.28076171875] [-151.5491943359375:237.54083251953125] [-173.7755126953125:154.15313720703125] [-127.645751953125:169.99163818359375] [-161.75982666015625:148.65365600585938] [-165.37025451660156:129.89990234375] [-115.00171661376953:177.61585998535156] [-104.61541748046875:165.81745910644531] [-90.1068115234375:174.99337768554688] [-71.168373107910156:401.16049194335938] [-64.164749145507812:240.05570983886719] [-121.99977111816406:191.64486694335938] [-107.78875732421875:179.57527160644531] [-124.84012603759766:282.94317626953125] [-128.21589660644531:272.85678100585938] [-79.463935852050781:318.91921997070312] [-119.66876983642578:264.4669189453125] [-100.72389984130859:157.50015258789062] [-122.47027587890625:145.05430603027344] [-97.347023010253906:218.66685485839844] [-113.63725280761719:163.35964965820312] [-128.91867065429688:205.44882202148438] [-110.91417694091797:158.084228515625] [-102.17587280273438:186.77879333496094] [-83.827461242675781:153.98692321777344] [-122.41995239257812:139.67080688476562] [-151.47660827636719:164.13529968261719] [-118.50041961669922:124.59812927246094] [-141.13331604003906:126.19860076904297] [-169.39613342285156:164.62100219726562] [-117.89611053466797:255.63887023925781] [-75.668815612792969:119.99997711181641] [-105.243896484375:128.78817749023438] [-137.03984069824219:235.61373901367188] [-95.034614562988281:150.05288696289062] [-159.81387329101562:249.87434387207031] [-178.65351867675781:206.882568359375] [-105.06737518310547:152.81539916992188] [-148.24855041503906:263.20077514648438] [-88.366615295410156:144.55366516113281] [-165.03131103515625:254.3021240234375] [-111.82649230957031:122.47517395019531] [-197.3095703125:143.52345275878906] [-109.84133148193359:127.76632690429688] [-70.532455444335938:97.447074890136719] [-123.62825775146484:149.61640930175781] [-132.84823608398438:147.43489074707031] [-107.60085296630859:191.43389892578125] [-98.384239196777344:199.56106567382812] [-150.18067932128906:174.24862670898438] [-98.760093688964844:163.81430053710938] [-132.3670654296875:153.90048217773438] [-149.88563537597656:144.12220764160156] [-136.69580078125:189.6263427734375] [-82.044105529785156:123.89476013183594] [-91.518135070800781:143.15594482421875] [-92.513664245605469:128.58695983886719] [-116.44927215576172:254.31022644042969] [-127.93633270263672:127.96309661865234] [-86.835342407226562:117.03852081298828] [-78.981895446777344:139.47245788574219] [-76.877090454101562:123.21113586425781] [-85.619544982910156:95.313041687011719] [-65.669921875:141.47906494140625] [-62.642070770263672:107.18350219726562] [-59.755256652832031:132.93757629394531] [-69.373359680175781:120.45989227294922] [-76.905967712402344:102.30065155029297] [-77.799713134765625:79.112937927246094] [-90.617637634277344:73.797874450683594] [-65.715812683105469:156.51292419433594] [-132.64860534667969:104.04837036132812] [-64.272544860839844:159.47610473632812] [-88.475776672363281:167.45381164550781] [-98.652603149414062:117.71607971191406] [-82.4820556640625:176.43011474609375] [-80.802757263183594:77.862701416015625] [-84.40008544921875:152.36750793457031] [-124.18071746826172:131.2880859375] [-68.570823669433594:104.33222198486328] [-84.003677368164062:120.96145629882812] [-51.094985961914062:102.37507629394531] [-122.70675659179688:115.80265045166016] [-82.331069946289062:119.583984375] [-60.867336273193359:159.61895751953125] [-95.995521545410156:154.93585205078125] [-57.360919952392578:95.419921875] [-83.809722900390625:97.387489318847656] [-92.035415649414062:83.920021057128906] [-89.381980895996094:109.27311706542969] [-105.97283172607422:95.50518798828125] [-91.759750366210938:74.341354370117188] [-93.275672912597656:64.748184204101562] [-91.577774047851562:89.182418823242188] [-54.851978302001953:115.08030700683594] [-88.426704406738281:119.96288299560547] [-53.57232666015625:89.958343505859375] [-98.467445373535156:129.25205993652344] [-47.577823638916016:84.257606506347656] [-75.50103759765625:129.17152404785156] [-61.383571624755859:86.864501953125] [-110.01966094970703:99.632545471191406] [-67.097587585449219:107.6173095703125] [-64.309585571289062:84.702301025390625] [-54.102405548095703:76.280242919921875] [-56.513622283935547:103.34095764160156] [-86.139419555664062:94.068336486816406] [-56.485641479492188:55.049461364746094] [-80.639274597167969:101.70608520507812] [-57.489246368408203:73.497047424316406] [-86.483161926269531:99.174110412597656] [-63.683372497558594:102.53955841064453] [-60.729564666748047:54.3892822265625] [-65.051658630371094:82.4169921875] [-104.54591369628906:112.44683074951172] [-71.202796936035156:92.537681579589844] [-51.763526916503906:92.498062133789062] [-68.117561340332031:74.256484985351562] [-81.475860595703125:119.83352661132812] [-51.204257965087891:110.26186370849609] [-48.388481140136719:69.603065490722656] [-60.27044677734375:116.61190795898438] [-84.885856628417969:117.83057403564453] [-56.725536346435547:103.32734680175781] [-75.661361694335938:66.691085815429688] [-66.354942321777344:77.396163940429688] [-67.162391662597656:81.646492004394531] [-52.097885131835938:96.376632690429688] [-61.232154846191406:68.4312744140625] [-77.515464782714844:87.113235473632812] [-80.989021301269531:92.580726623535156] [-60.821548461914062:66.830337524414062] [-55.312152862548828:73.949897766113281] [-77.359596252441406:97.932563781738281] [-64.565780639648438:69.183807373046875] [-80.898056030273438:98.901054382324219] [-55.053874969482422:58.287796020507812] [-60.420139312744141:78.790367126464844] [-59.980426788330078:89.809860229492188] [-53.536338806152344:91.171516418457031] [-64.350074768066406:77.547126770019531] [-74.748725891113281:85.689414978027344] [-60.413742065429688:61.980144500732422] [-64.827964782714844:79.217872619628906] [-72.168220520019531:84.025886535644531] [-69.4666748046875:88.435478210449219] [-48.953990936279297:62.409923553466797] [-51.819911956787109:79.550559997558594] [-55.848342895507812:91.684013366699219] [-77.327278137207031:100.81713104248047] [-67.747978210449219:105.02367401123047] [-65.068473815917969:56.985530853271484] [-62.014533996582031:77.905471801757812] [-64.587104797363281:60.503406524658203] [-81.223350524902344:106.19697570800781] [-59.971202850341797:78.852951049804688] [-52.776546478271484:73.966796875] [-51.364738464355469:98.093772888183594] [-60.074886322021484:84.045669555664062] [-50.629528045654297:48.642822265625] [-65.198738098144531:70.348770141601562] [-66.922744750976562:66.645469665527344] [-106.15716552734375:87.469001770019531] [-49.464820861816406:61.070938110351562] [-68.410621643066406:72.790283203125] [-54.786643981933594:66.856559753417969] [-55.465385437011719:57.848918914794922] [-50.286602020263672:116.93402099609375] [-63.885498046875:64.831695556640625] [-47.854728698730469:69.037818908691406] [-57.604381561279297:79.622451782226562] [-43.425468444824219:76.278968811035156] [-64.272857666015625:51.227535247802734] [-67.392372131347656:83.480331420898438] [-60.330615997314453:80.7720947265625] [-52.392154693603516:65.085426330566406] [-61.436840057373047:57.266448974609375] [-54.417217254638672:53.856071472167969] [-76.150344848632812:111.95015716552734] [-59.528793334960938:50.904075622558594] [-65.328903198242188:75.31988525390625] [-62.186485290527344:78.935760498046875] [-55.732547760009766:59.864524841308594] [-60.721481323242188:61.886024475097656] [-58.815082550048828:82.03387451171875] [-60.919612884521484:48.158283233642578] [-61.811592102050781:60.289173126220703] [-38.948204040527344:72.123222351074219] [-53.385013580322266:51.216754913330078] [-64.196510314941406:60.975193023681641] [-53.966354370117188:79.466728210449219] [-56.704814910888672:100.53421020507812] [-58.050384521484375:60.259899139404297] [-62.041336059570312:59.847972869873047] [-43.276657104492188:65.79266357421875] [-58.501350402832031:52.733737945556641] [-45.764316558837891:41.724166870117188] [-45.43505859375:62.84857177734375] [-62.777484893798828:54.200721740722656] [-75.222076416015625:90.0550537109375] [-56.820144653320312:84.768081665039062] [-60.887077331542969:107.89680480957031] [-44.468677520751953:61.155178070068359] [-48.752315521240234:67.165733337402344] [-43.241279602050781:78.007034301757812] [-44.242801666259766:79.252174377441406] [-46.071937561035156:63.294754028320312] [-50.23760986328125:64.374137878417969] [-52.330532073974609:69.193901062011719] [-47.619247436523438:53.723369598388672] [-80.225479125976562:57.801788330078125] [-48.121353149414062:49.537204742431641] [-46.110759735107422:55.347030639648438] [-63.920673370361328:88.92919921875] [-52.621406555175781:81.766693115234375] [-67.450210571289062:110.51136779785156] [-53.871990203857422:69.611099243164062] [-39.875209808349609:61.158126831054688] [-53.01824951171875:53.598918914794922] [-58.952674865722656:54.236240386962891] [-57.281963348388672:56.230400085449219] [-63.281669616699219:71.461387634277344] [-56.6474609375:80.060600280761719] [-46.249210357666016:51.102939605712891] [-46.355365753173828:56.622100830078125] [-59.137363433837891:59.577995300292969] [-50.281646728515625:92.4400634765625] [-53.119941711425781:57.646457672119141] [-48.312847137451172:77.231826782226562] [-45.179237365722656:62.279350280761719] [-48.53948974609375:66.123275756835938] [-42.310749053955078:63.798419952392578] [-48.928821563720703:59.192676544189453] [-56.279067993164062:70.688926696777344] [-47.769428253173828:52.074253082275391] [-44.393783569335938:66.394744873046875] [-35.290943145751953:61.400127410888672] [-68.694618225097656:54.701087951660156] [-45.798503875732422:65.378494262695312] [-40.634586334228516:48.473995208740234] [-51.831825256347656:57.5980224609375] [-40.814388275146484:78.45648193359375] [-45.577030181884766:44.911582946777344] [-52.832523345947266:76.328163146972656] [-40.374156951904297:40.368419647216797] [-46.354560852050781:54.099796295166016] [-52.193782806396484:51.800994873046875] [-36.985771179199219:44.844642639160156] [-59.088813781738281:49.756595611572266] [-36.631839752197266:57.647750854492188] [-36.320152282714844:48.301918029785156] [-42.847381591796875:55.193569183349609] [-40.926589965820312:52.581264495849609] [-34.484695434570312:59.704795837402344] [-43.555622100830078:63.6116943359375] [-48.187061309814453:44.566135406494141] [-47.030567169189453:53.171432495117188] [-47.059856414794922:50.362983703613281] [-41.778942108154297:45.764816284179688] [-48.639846801757812:47.268264770507812] [-54.968219757080078:43.989486694335938] [-36.909355163574219:53.384349822998047] [-43.585781097412109:42.588050842285156] [-39.766654968261719:40.550437927246094] [-41.950763702392578:48.364040374755859] [-42.374629974365234:77.429901123046875] [-42.899806976318359:52.608371734619141] [-43.300151824951172:53.562774658203125] [-54.784019470214844:62.073078155517578] [-40.286121368408203:47.498970031738281] [-54.875320434570312:60.639247894287109] [-40.004589080810547:50.897922515869141] [-44.449050903320312:43.299701690673828] [-42.100872039794922:49.135177612304688] [-49.341297149658203:60.179115295410156] [-63.823593139648438:50.123146057128906] [-57.785430908203125:53.786724090576172] [-33.264217376708984:54.567173004150391] [-39.348770141601562:47.133831024169922] [-42.759780883789062:48.297447204589844] [-38.372970581054688:45.981033325195312] [-59.842384338378906:62.475360870361328] [-41.123554229736328:49.859920501708984] [-63.651504516601562:60.245426177978516] [-52.920936584472656:60.533416748046875] [-47.556266784667969:46.20758056640625] [-37.890575408935547:34.335273742675781] [-45.715858459472656:42.843349456787109] [-40.62939453125:59.505268096923828] [-53.090579986572266:49.252567291259766] [-37.689029693603516:34.37005615234375] [-47.744960784912109:44.912799835205078] [-35.160873413085938:50.635841369628906] [-40.402935028076172:48.354499816894531] [-32.706127166748047:48.382091522216797] [-37.688747406005859:46.771427154541016] [-48.298786163330078:56.036514282226562] [-41.385921478271484:61.103599548339844] [-31.414215087890625:39.069297790527344] [-37.211990356445312:44.813823699951172] [-38.546791076660156:41.392768859863281] [-39.710243225097656:51.759559631347656] [-37.591377258300781:57.581958770751953] [-39.467071533203125:42.321708679199219] [-40.819923400878906:54.712177276611328] [-47.956962585449219:35.168109893798828] [-28.809015274047852:41.457820892333984] [-38.489845275878906:38.403858184814453] [-35.133132934570312:36.402812957763672] [-49.946311950683594:75.111495971679688] [-31.673198699951172:39.153667449951172] [-38.047412872314453:45.638271331787109] [-33.721961975097656:42.280689239501953] [-36.726192474365234:54.581367492675781] [-45.015193939208984:45.345901489257812] [-36.456584930419922:48.521018981933594] [-34.541885375976562:39.067531585693359] [-35.64990234375:46.744907379150391] [-31.875566482543945:55.858505249023438] [-39.846279144287109:46.102687835693359] [-35.908500671386719:36.356407165527344] [-48.125221252441406:40.775985717773438] [-40.353561401367188:35.814491271972656] [-38.668544769287109:46.583221435546875] [-49.115856170654297:57.051177978515625] [-31.894868850708008:42.901477813720703] [-47.636016845703125:45.960594177246094] [-44.248569488525391:55.719932556152344] [-34.245048522949219:42.017112731933594] [-47.097564697265625:49.040596008300781] [-44.057926177978516:59.959381103515625] [-37.881935119628906:52.884441375732422] [-40.593570709228516:41.005744934082031] [-45.728656768798828:49.999134063720703] [-39.866527557373047:45.317497253417969] [-37.69378662109375:36.433216094970703] [-34.188953399658203:46.905189514160156] [-42.40234375:51.063076019287109] [-34.774749755859375:38.234451293945312] [-35.728355407714844:49.252632141113281] [-38.06005859375:32.550689697265625] [-47.564018249511719:52.334609985351562] [-46.433860778808594:43.269084930419922] [-40.158454895019531:37.670322418212891] [-37.278804779052734:36.253463745117188] [-38.136039733886719:48.096836090087891] [-44.459186553955078:65.972358703613281] [-29.183942794799805:38.201816558837891] [-44.008258819580078:47.694175720214844] [-36.875625610351562:36.157093048095703] [-34.222080230712891:54.875675201416016] [-38.796710968017578:35.549720764160156] [-35.401199340820312:48.996974945068359] [-38.287883758544922:43.974433898925781] [-40.721820831298828:46.087543487548828] [-33.222908020019531:37.0555419921875] [-32.191612243652344:47.908542633056641] [-36.216419219970703:43.517463684082031] [-38.131111145019531:39.624576568603516] [-38.616046905517578:35.775764465332031] [-41.282691955566406:40.935901641845703] [-37.072891235351562:38.071510314941406] [-30.46484375:43.738903045654297] [-37.616451263427734:38.418552398681641] [-29.808345794677734:42.958183288574219] [-35.346336364746094:37.862476348876953] [-39.238979339599609:30.367130279541016] [-38.707599639892578:40.195552825927734] [-44.190963745117188:48.6546630859375] [-49.186855316162109:58.177936553955078] [-38.460647583007812:40.450389862060547] [-38.615470886230469:55.740062713623047] [-33.192287445068359:47.204631805419922] [-36.268013000488281:46.977886199951172] [-32.505989074707031:36.1497802734375] [-41.701503753662109:41.170211791992188] [-38.613719940185547:40.774204254150391] [-42.233448028564453:45.161140441894531] [-33.822048187255859:35.388263702392578] [-33.196800231933594:43.677951812744141] [-27.018749237060547:59.201797485351562] [-48.837326049804688:37.330463409423828] [-31.78761100769043:37.175266265869141] [-29.986478805541992:45.656692504882812] [-39.202297210693359:47.306819915771484] [-30.20197868347168:40.551876068115234] [-44.622966766357422:36.120273590087891] [-42.364627838134766:49.280620574951172] [-40.029666900634766:38.02642822265625] [-30.018152236938477:41.458057403564453] [-63.862567901611328:35.410449981689453] [-35.876121520996094:35.911598205566406] [-36.029262542724609:38.438930511474609] [-28.385269165039062:39.030467987060547] [-39.111076354980469:45.887939453125] [-34.503021240234375:41.734855651855469] [-35.118877410888672:42.03692626953125] [-31.635141372680664:40.872997283935547] [-33.862503051757812:34.168251037597656] [-27.161556243896484:26.496208190917969] [-33.429420471191406:46.516109466552734] [-28.010448455810547:33.956924438476562] [-30.795503616333008:42.550594329833984] [-29.868274688720703:35.095634460449219] [-37.111042022705078:34.778732299804688] [-35.546401977539062:36.076908111572266] [-41.148792266845703:44.322071075439453] [-27.995149612426758:37.397087097167969] [-40.871860504150391:44.575115203857422] [-36.378101348876953:48.589332580566406] [-32.60205078125:35.937705993652344] [-39.054702758789062:41.777694702148438] [-36.501300811767578:40.17431640625] [-37.776454925537109:39.718090057373047] [-29.594676971435547:45.517322540283203] [-32.753921508789062:34.19476318359375] [-29.350929260253906:43.498283386230469] [-36.830368041992188:38.954559326171875] [-28.515092849731445:37.695758819580078] [-34.462047576904297:39.616619110107422] [-33.3782958984375:29.905490875244141] [-35.70330810546875:44.309307098388672] [-32.160144805908203:31.408008575439453] [-37.066749572753906:32.841999053955078] [-31.095415115356445:38.910404205322266] [-35.81964111328125:38.307777404785156] [-41.582309722900391:43.960258483886719] [-34.595798492431641:40.11761474609375] [-31.978097915649414:41.304653167724609] [-29.972118377685547:43.2733154296875] [-26.336822509765625:42.590133666992188] [-35.182762145996094:39.366203308105469] [-29.780538558959961:38.029258728027344] [-28.569416046142578:30.738054275512695] [-25.758401870727539:38.40557861328125] [-33.905055999755859:30.432712554931641] [-30.724884033203125:41.903690338134766] [-32.648052215576172:38.112438201904297] [-29.165904998779297:41.096263885498047] [-36.924278259277344:36.032054901123047] [-26.148262023925781:38.502864837646484] [-29.31120491027832:30.114532470703125] [-28.911125183105469:35.697647094726562] [-30.967714309692383:35.238784790039062] [-33.551605224609375:39.099639892578125] [-27.167791366577148:33.897018432617188] [-28.850563049316406:34.802337646484375] [-33.665699005126953:32.647037506103516] [-37.883377075195312:44.998813629150391] [-34.859474182128906:33.703754425048828] [-31.36854362487793:35.195610046386719] [-25.054330825805664:33.252559661865234] [-29.191390991210938:34.974643707275391] [-24.17418098449707:40.066619873046875] [-25.594322204589844:48.152290344238281] [-37.013851165771484:28.301458358764648] [-27.55546760559082:37.171005249023438] [-25.098197937011719:41.750957489013672] [-29.071144104003906:33.493309020996094] [-31.514432907104492:34.909450531005859] [-26.663396835327148:38.059474945068359] [-23.357202529907227:36.877952575683594] [-28.215431213378906:34.649566650390625] [-28.241504669189453:39.701068878173828] [-25.967178344726562:35.248859405517578] [-28.252174377441406:33.551273345947266] [-27.839284896850586:27.443971633911133] [-37.092987060546875:35.726043701171875] [-33.995487213134766:34.154537200927734] [-26.978517532348633:29.136289596557617] [-24.257331848144531:36.888683319091797] [-30.716075897216797:35.269351959228516] [-37.620975494384766:32.373638153076172] [-29.614023208618164:43.198654174804688] [-28.236141204833984:31.454280853271484] [-33.425590515136719:38.482635498046875] [-27.763477325439453:32.935482025146484] [-31.717845916748047:36.151756286621094] [-30.674116134643555:29.364887237548828] [-34.293125152587891:29.968837738037109] [-28.487329483032227:29.696348190307617] [-32.914844512939453:45.039073944091797] [-29.651630401611328:28.633922576904297] [-37.169353485107422:33.300853729248047] [-43.269191741943359:31.390762329101562] [-26.176654815673828:36.304080963134766] [-36.564517974853516:36.312889099121094] [-33.751091003417969:36.715068817138672] [-28.655988693237305:32.150985717773438] [-41.588981628417969:30.468526840209961] [-32.825851440429688:36.779762268066406] [-27.8651123046875:37.797290802001953] [-27.403234481811523:41.368778228759766] [-44.639297485351562:36.725086212158203] [-28.236797332763672:28.971717834472656] [-34.858470916748047:27.455347061157227] [-40.543720245361328:32.403293609619141] [-29.001247406005859:29.480644226074219] [-31.302787780761719:32.781379699707031] [-25.098936080932617:30.090789794921875] [-24.77039909362793:35.533962249755859] [-28.043161392211914:31.285270690917969] [-25.667087554931641:32.116596221923828] [-29.729751586914062:32.71337890625] [-47.245887756347656:32.59588623046875] [-34.085636138916016:31.262290954589844] [-29.901348114013672:31.841583251953125] [-33.366920471191406:47.137126922607422] [-29.456150054931641:36.419895172119141] [-33.929222106933594:32.105442047119141] [-39.03375244140625:41.371715545654297] [-25.484172821044922:28.168100357055664] [-30.067651748657227:33.837532043457031] [-32.221160888671875:30.896814346313477] [-27.056299209594727:29.737335205078125] [-30.080472946166992:29.474357604980469] [-27.769229888916016:32.267116546630859] [-29.775899887084961:28.940650939941406] [-27.254989624023438:26.820892333984375] [-26.446643829345703:32.321132659912109] [-26.523506164550781:30.177915573120117] [-28.792247772216797:29.444561004638672] [-30.906808853149414:28.916427612304688] [-29.514354705810547:35.460544586181641] [-26.312191009521484:27.31458854675293] [-28.121526718139648:34.116943359375] [-31.146711349487305:38.067584991455078] [-27.045637130737305:27.077487945556641] [-27.740884780883789:31.294164657592773] [-27.244222640991211:33.382545471191406] [-35.791191101074219:49.475570678710938] [-30.708890914916992:29.392780303955078] [-30.440555572509766:29.323036193847656] [-22.639583587646484:31.411640167236328] [-33.700935363769531:34.554481506347656] [-31.716203689575195:39.828838348388672] [-26.95631217956543:32.323287963867188] [-34.633918762207031:33.883594512939453] [-30.166791915893555:31.083595275878906] [-25.945804595947266:33.536342620849609] [-26.30767822265625:25.20173454284668] [-27.123294830322266:26.94987678527832] [-25.331884384155273:37.821155548095703] [-34.354576110839844:29.236223220825195] [-25.116401672363281:33.849430084228516] [-34.220691680908203:29.76409912109375] [-36.696125030517578:32.605587005615234] [-26.404079437255859:29.789844512939453] [-30.056116104125977:38.999359130859375] [-21.640815734863281:37.733364105224609] [-31.466058731079102:30.538478851318359] [-26.842792510986328:30.062826156616211] [-25.851762771606445:35.267280578613281] [-27.11802864074707:32.799041748046875] [-33.892425537109375:26.870250701904297] [-27.409276962280273:24.477210998535156] [-30.578067779541016:25.484325408935547] [-23.453804016113281:28.522417068481445] [-23.890508651733398:27.773542404174805] [-27.995298385620117:31.705827713012695] [-30.124256134033203:30.159957885742188] [-24.841823577880859:30.687540054321289] [-27.186542510986328:31.247356414794922] [-27.223300933837891:27.561922073364258] [-32.24493408203125:35.2086181640625] [-27.258428573608398:27.027265548706055] [-25.628047943115234:30.222196578979492] [-30.852806091308594:28.603263854980469] [-37.314346313476562:30.763521194458008] [-25.917459487915039:31.415313720703125] [-26.450397491455078:28.049703598022461] [-25.763572692871094:26.796087265014648] [-29.893045425415039:30.699396133422852] [-28.046854019165039:27.131052017211914] [-21.472835540771484:30.752613067626953] [-22.670238494873047:32.91265869140625] [-20.456972122192383:39.793647766113281] [-33.55322265625:31.529886245727539] [-23.534542083740234:26.607400894165039] [-33.855175018310547:28.892429351806641] [-21.685674667358398:25.712825775146484] [-26.413532257080078:36.448112487792969] [-22.011089324951172:33.367721557617188] [-27.247919082641602:31.967775344848633] [-23.569297790527344:37.864799499511719] [-23.965105056762695:25.796821594238281] [-29.215179443359375:42.578235626220703] [-21.445377349853516:32.361557006835938] [-26.692888259887695:28.971868515014648] [-25.965814590454102:28.99614143371582] [-20.661535263061523:21.733367919921875] [-25.171695709228516:24.176429748535156] [-31.362733840942383:27.180288314819336] [-36.009685516357422:45.170482635498047] [-33.15093994140625:28.463478088378906] [-34.325176239013672:34.637992858886719] [-26.712911605834961:34.940425872802734] [-34.474678039550781:29.230392456054688] [-21.190280914306641:27.320016860961914] [-25.401153564453125:27.06657600402832] [-22.732883453369141:24.305877685546875] [-34.62139892578125:33.649578094482422] [-26.67497444152832:25.68426513671875] [-22.48127555847168:26.869125366210938] [-25.377609252929688:25.930870056152344] [-28.038562774658203:30.168954849243164] [-23.915060043334961:28.006452560424805] [-23.450752258300781:22.992385864257812] [-29.015277862548828:33.472999572753906] [-21.043785095214844:22.716733932495117] [-26.992221832275391:25.978073120117188] [-22.577630996704102:27.513505935668945] [-23.545839309692383:26.461963653564453] [-26.345632553100586:34.618896484375] [-23.730266571044922:26.383670806884766] [-21.152193069458008:31.478664398193359] [-25.640090942382812:27.336212158203125] [-24.386383056640625:31.497959136962891] [-34.132198333740234:27.686817169189453] [-24.180391311645508:27.706825256347656] [-33.188968658447266:30.229345321655273] [-22.873340606689453:29.717815399169922] [-24.646230697631836:24.887100219726562] [-21.540134429931641:24.185346603393555] [-24.001560211181641:28.097330093383789] [-30.158218383789062:23.328458786010742] [-27.216314315795898:31.333036422729492] [-27.043758392333984:28.190849304199219] [-22.829980850219727:29.180021286010742] [-22.685148239135742:26.302103042602539] [-20.585947036743164:26.274335861206055] [-25.838602066040039:26.669597625732422] [-27.708267211914062:28.065694808959961] [-27.173921585083008:29.364278793334961] [-24.645488739013672:26.639003753662109] [-25.709327697753906:30.583904266357422] [-25.858375549316406:26.138422012329102] [-27.065818786621094:27.52668571472168] [-20.153512954711914:28.993677139282227] [-25.863176345825195:31.698575973510742] [-29.224758148193359:28.571989059448242] [-22.754047393798828:30.219411849975586] [-19.683658599853516:27.682979583740234] [-26.786951065063477:25.041282653808594] [-22.709787368774414:29.591314315795898] [-24.922170639038086:24.778055191040039] [-33.801837921142578:22.348644256591797] [-29.748725891113281:26.384260177612305] [-36.366874694824219:22.636114120483398] [-24.035026550292969:27.772706985473633] [-22.188009262084961:25.848604202270508] [-24.644220352172852:30.046901702880859] [-24.489284515380859:23.754762649536133] [-36.688438415527344:27.716316223144531] [-28.16705322265625:22.610086441040039] [-25.784406661987305:29.667747497558594] [-30.374553680419922:24.209848403930664] [-28.206212997436523:29.137533187866211] [-22.75871467590332:27.78044319152832] [-45.090648651123047:24.659297943115234] [-22.860836029052734:27.917766571044922] [-32.0518798828125:27.990056991577148] [-25.869997024536133:24.159221649169922] [-24.103549957275391:37.672344207763672] [-30.061452865600586:26.681251525878906] [-29.501596450805664:25.666910171508789] [-29.040616989135742:42.151691436767578] [-27.871807098388672:20.655080795288086] [-24.283658981323242:36.366802215576172] [-31.345619201660156:24.486957550048828] [-24.034055709838867:29.483272552490234] [-28.939750671386719:25.610767364501953] [-21.524265289306641:22.303155899047852] [-22.708246231079102:31.332195281982422] [-19.199365615844727:22.911949157714844] [-25.961568832397461:26.406938552856445] [-29.527576446533203:42.616374969482422] [-23.110328674316406:26.442499160766602] [-25.465513229370117:23.140016555786133] [-23.98444938659668:22.702243804931641] [-34.199245452880859:23.068185806274414] [-20.17144775390625:24.875661849975586] [-29.714349746704102:29.201324462890625] [-19.720233917236328:44.224628448486328] [-19.815507888793945:24.70655632019043] [-28.969997406005859:32.825862884521484] [-19.499340057373047:27.074115753173828] [-30.010955810546875:27.17083740234375] [-30.961174011230469:31.167890548706055] [-26.715347290039062:26.051553726196289] [-22.326044082641602:23.138320922851562] [-26.440305709838867:30.300464630126953] [-27.757356643676758:26.81610107421875] [-25.356891632080078:21.575447082519531] [-21.616836547851562:27.432241439819336] [-27.056489944458008:24.493045806884766] [-27.511650085449219:42.575122833251953] [-19.728082656860352:29.819610595703125] [-25.086801528930664:23.918825149536133] [-32.806011199951172:21.718910217285156] [-22.935079574584961:23.415140151977539] [-22.180511474609375:22.437511444091797] [-23.690444946289062:23.416561126708984] [-22.359590530395508:24.15379524230957] [-20.244003295898438:23.834394454956055] [-28.907569885253906:23.594690322875977] [-23.933849334716797:24.448024749755859] [-25.131183624267578:23.607210159301758] [-26.027502059936523:29.40165901184082] [-32.678085327148438:32.276699066162109] [-21.526981353759766:26.602899551391602] [-24.008628845214844:25.172933578491211] [-21.123735427856445:28.995349884033203] [-28.454862594604492:21.11961555480957] [-26.243610382080078:27.317474365234375] [-22.815767288208008:26.804506301879883] [-21.807460784912109:26.110258102416992] [-25.456760406494141:23.868026733398438] [-24.890920639038086:22.553831100463867] [-42.452709197998047:56.212879180908203] [-19.052932739257812:27.283958435058594] [-28.08387565612793:24.048894882202148] [-24.651241302490234:27.843547821044922] [-33.3114013671875:26.337823867797852] [-23.625259399414062:25.828220367431641] [-27.601972579956055:23.18388557434082] [-26.255012512207031:28.434408187866211] [-23.743871688842773:33.666530609130859] [-21.194120407104492:22.744964599609375] [-24.481962203979492:24.528388977050781] [-25.156660079956055:27.915590286254883] [-32.274337768554688:24.865167617797852] [-24.552200317382812:27.769777297973633] [-21.001001358032227:24.817411422729492] [-26.024944305419922:25.857316970825195] [-25.561738967895508:27.10911750793457] [-19.492626190185547:29.385219573974609] [-23.265954971313477:22.357757568359375] [-26.183822631835938:25.893489837646484] [-23.526468276977539:21.127346038818359] [-21.208982467651367:23.701419830322266] [-20.94036865234375:26.426990509033203] [-20.918327331542969:30.730747222900391] [-32.93878173828125:24.732141494750977] [-23.274991989135742:33.673072814941406] [-23.212530136108398:27.482553482055664] [-20.358249664306641:21.262178421020508] [-26.63795280456543:24.019716262817383] [-26.421764373779297:25.031909942626953] [-40.872219085693359:27.950765609741211] [-27.852447509765625:22.659324645996094] [-24.653400421142578:21.47730827331543] [-26.12806510925293:25.316810607910156] [-28.695158004760742:24.36811637878418] [-27.377946853637695:24.419843673706055] [-26.515884399414062:20.892082214355469] [-28.132772445678711:26.380083084106445]
tree_sizes=2317 3109 2906 2628 3011 3078 3397 3413 3430 3411 3431 3398 3406 3416 3415 3405 3392 3408 3410 3414 2760 3419 3412 3421 3413 3432 3393 3408 3398 3396 3402 3389 3413 3397 3412 3407 3408 3405 3428 3398 3407 3415 3416 3415 3390 3420 3401 3422 3421 3414 3414 3399 3427 3412 3409 3398 3421 3432 3417 3417 3436 3404 3423 3412 3421 3427 3415 3413 3407 3434 3420 3401 3416 3411 3421 3413 3405 3420 3405 3415 3410 3404 3226 3419 3410 3420 3418 3419 3428 3416 3450 3412 3412 3398 3401 3072 3433 3227 3423 3413 3420 3428 3434 3424 3413 3413 3414 3423 3405 3410 3424 3417 3417 3410 3425 3423 3413 3433 3425 3423 3423 3431 3440 3430 3433 3401 3429 3429 3438 3412 3411 3424 3425 3436 3424 3435 3418 3437 3429 3434 3444 3430 3457 3425 3417 3433 3439 3432 3445 3439 3437 3448 3431 3437 3428 3445 3428 3446 3464 3440 3436 3458 3442 3451 3440 3449 3444 3442 3462 3451 3465 3460 3447 3450 3434 3465 3458 3447 3442 3460 3461 3460 3443 3462 3460 3457 3462 3453 3466 3458 3464 3481 3454 3465 3468 3455 3464 3450 3471 3458 3441 3462 3472 3469 3465 3463 3467 3459 3456 3463 3478 3470 3489 3472 3479 3476 3474 3478 3493 3487 3472 3476 3480 3470 3461 3481 3466 3464 3484 3467 3487 3471 3469 3493 3470 3501 3464 3475 3485 3480 3471 3486 3475 3484 3478 3489 3480 3482 3492 3489 3493 3494 3482 3502 3493 3491 3478 3483 3494 3501 3516 3504 3462 3496 3493 3499 3488 3494 3493 3482 3530 3494 3486 3495 3506 3508 3495 3493 3482 3497 3506 3504 3521 3507 3490 3530 3501 3493 3506 3505 3516 3510 3512 3501 3510 3512 3499 3502 3532 3506 3524 3505 3510 3506 3508 3529 3515 3520 3518 3521 3537 3521 3511 3527 3524 3545 3532 3511 3540 3519 3555 3532 3525 3537 3527 3523 3539 3520 3522 3530 3525 3514 3538 3520 3522 3552 3532 3538 3549 3532 3537 3449 3532 3538 3546 3559 3560 3537 3546 3544 3542 3542 3533 3566 3561 3564 3541 3544 3574 3557 3585 3553 3544 3560 3548 3560 3560 3543 3566 3551 3577 3555 3554 3577 3565 3576 3562 3563 3565 3544 3563 3563 3568 3566 3563 3565 3569 3559 3572 3551 3572 3575 3568 3573 3559 3587 3563 3570 3563 3571 3579 3574 3564 3581 3567 3587 3562 3585 3590 3572 3582 3566 3577 3589 3580 3599 3575 3586 3575 3571 3586 3567 3599 3572 3582 3606 3563 3601 3592 3594 3599 3566 3591 3595 3588 3598 3584 3574 3606 3594 3616 3149 3601 3594 3591 3601 3583 3599 3603 3585 3610 3587 3597 3616 3605 3598 3602 3595 3612 3587 3608 3598 3604 3613 3608 3616 3620 3615 3612 3598 3611 3607 3588 3626 3616 3626 3615 3614 3601 3615 3620 3617 3625 3625 3605 3619 3622 3631 3616 3630 3635 3637 3640 3621 3630

Tree=0
num_leaves=22
num_cat=0
split_feature=5 0 1 3 0 750 29 92 84 651 52 497 0 90 754 616 674 51 126 0 4
split_gain=92.6834 56.1315 35.4373 32.3232 23.2705 16.0428 14.149 13.6768 12.311 11.2906 10.8939 5.99661 6.59967 10.0585 5.03529 8.59785 1.85808 0.906244 0.705882 0.565217 0.163793
threshold=-14.924767494201658 -39.974210739135735 1.1299273967742922 38.641939163208015 182.96408843994143 0.056589586660265929 15.88503932952881 -0.77887845039367665 18.884304046630863 -9.1182513236999494 -2.3807047605514522 10.744318008422853 93.96634674072267 -1.3002332448959348 -3.0674226284027095 -2.2247785329818721 5.4885699748992929 -16.469636917114254 -1.0000000180025095e-35 55.074747085571296 -30.985515594482418
decision_type=2 2 2 2 2 2 2 2 2 2 2 2 2 2 2 2 2 2 2 2 2
left_child=1 10 7 5 6 -4 8 -3 9 -2 -1 12 14 -14 15 -11 17 -16 -17 -9 -12
right_child=4 2 3 -5 -6 -7 -8 19 -10 11 20 -13 13 -15 16 18 -18 -19 -20 -21 -22
leaf_value=-1.5094379124341004 -1.5094379124341002 -1.4316601346563225 -1.7094379124341001 -1.2927712457674336 -1.4386045791007669 -1.4888496771399826 -1.5237236267198146 -1.2594379124341 -1.5048924578886458 -1.5607892637854517 -1.6844379124341002 -1.5748225278187156 -1.7094379124341004 -1.5197827400203072 -1.6594379124341003 -1.6594379124341003 -1.6522950552912432 -1.708200288671724 -1.7094379124341004 -1.2094379124341004 -1.7094379124341004
leaf_weight=4.0000000596046457 4.0000000596046439 5.4000000804662713 6.4000000953674334 4.8000000715255728 4.8000000715255728 6.8000001013278961 7.0000001043081275 4.0000000596046412 4.4000000655651084 7.4000001102685955 4.0000000596046439 5.2000000774860373 5.4000000804662704 5.8000000864267331 4.0000000596046439 4.0000000596046474 7.0000001043081275 80.800001204013824 9.6000001430511421 5.2000000774860382 7.6000001132488224
leaf_count=20 20 27 32 24 24 34 35 20 22 37 20 26 27 29 20 20 35 404 48 26 38
internal_value=-1.61632 -1.49574 -1.42109 -1.51499 -1.65522 -1.5958 -1.66241 -1.30533 -1.66947 -1.6749 -1.65175 -1.68003 -1.68444 -1.61122 -1.69171 -1.64753 -1.70181 -1.7059 -1.69473 -1.23118 -1.70082
internal_weight=197.6 48.2 32.6 18 149.4 13.2 144.6 14.6 137.6 133.2 15.6 129.2 124 11.2 112.8 21 91.8 84.8 13.6 9.2 11.6
internal_count=988 241 163 90 747 66 723 73 688 666 78 646 620 56 564 105 459 424 68 46 58
is_linear=0
shrinkage=1


Tree=1
num_leaves=30
num_cat=0
split_feature=3 10 23 377 53 76 333 302 634 664 181 711 388 143 421 4 445 685 162 502 75 315 164 4 2 0 0 0 1
split_gain=45.4818 36.3765 29.568 27.2378 23.5541 21.6562 18.0796 15.125 14.0076 15.1808 12.5816 16.035 12.5 12.2549 7.94118 6.7835 5.73676 5.66441 5.18465 3.53368 3.22021 5.84825 1.47101 0.80198 0.195055 0.186709 7.10543e-15 3.55271e-15 1.77636e-15
threshold=-4.4207551479339591 -12.529634952545164 -5.3561024665832511 8.0520057678222674 5.694021701812745 -9.6049709320068342 -6.4753162860870352 -1.0936748981475828 1.6122013330459597 -0.19157464057207105 -2.032981157302856 3.0235344171524052 0.070969488471746459 2.5577418804168706 -7.2623379230499259 -32.292322158813469 8.1040363311767596 2.0320861339569096 2.6873550415039067 -2.1666922569274898 -5.7045745849609366 0.097043499350547804 6.8493862152099618 -18.240415573120114 -36.641103744506829 -81.82580184936522 31.514178276062015 -56.736194610595696 -1.0000000180025095e-35
decision_type=2 2 2 2 2 2 2 2 2 2 2 2 2 2 2 2 2 2 2 2 2 2 2 2 2 2 2 2 2
left_child=1 18 4 5 13 -4 -7 -6 17 -10 11 14 -13 -3 -2 -16 20 23 25 -17 21 -12 26 -8 -21 -1 -22 -25 -26
right_child=10 2 3 -5 7 6 8 -9 9 -11 16 12 -14 -15 15 19 -18 -19 -20 24 22 -23 -24 27 28 -27 -28 -29 -30
leaf_value=-1.6844379124341002 -1.5094379124341002 -1.2388496771399828 -1.4125629124341001 -1.344053297049485 -1.6844379124341002 -1.4415807695769574 -1.6594379124341003 -1.4094379124341003 -1.4352443640470036 -1.6694379124341003 -1.5572639993906221 -1.3594379124341003 -1.6094379124341003 -1.4594379124341004 -1.5555917585879464 -1.6185288215250093 -1.5730742760704639 -1.595152198148386 -1.5844379124341004 -1.6844379124341002 -1.7094379124341004 -1.7094379124341004 -1.6538823568785448 -1.7094379124341001 -1.7094379124341001 -1.7094379124341004 -1.7094379124341004 -1.7094379124341001 -1.7094379124341004
leaf_weight=4.0000000596046474 4.0000000596046439 6.8000001013278979 6.4000000953674308 5.2000000774860373 4.0000000596046448 5.6000000834465018 4.0000000596046439 4.000000059604643 6.2000000923871994 5.0000000745058042 4.6000000685453397 4.000000059604643 4.0000000596046448 4.0000000596046448 5.2000000774860373 6.6000000983476665 4.4000000655651084 7.0000001043081275 4.8000000715255728 4.000000059604651 26.600000396370888 5.6000000834465027 5.4000000804662696 4.6000000685453442 8.4000001251697558 11.8000001758337 14.000000208616255 11.600000172853475 5.8000000864267305
leaf_count=20 20 34 32 26 20 28 20 20 31 25 23 20 20 20 26 33 22 35 24 20 133 28 27 23 42 59 70 58 29
internal_value=-1.60772 -1.55786 -1.5253 -1.56196 -1.41688 -1.58444 -1.60944 -1.54694 -1.63392 -1.5398 -1.65388 -1.61182 -1.48444 -1.32055 -1.64179 -1.65944 -1.68304 -1.67267 -1.67546 -1.68121 -1.69164 -1.64081 -1.70292 -1.69954 -1.70394 -1.70311 -1.70944 -1.70944 -1.70944
internal_weight=197.6 95 74.4 55.6 18.8 50.4 44 8 38.4 11.2 102.6 42 8 10.8 34 30 60.6 27.2 20.6 24.8 56.2 10.2 46 20.2 18.2 15.8 40.6 16.2 14.2
internal_count=988 475 372 278 94 252 220 40 192 56 513 210 40 54 170 150 303 136 103 124 281 51 230 101 91 79 203 81 71
is_linear=0
shrinkage=1


Tree=2
num_leaves=28
num_cat=0
split_feature=5 3 6 533 7 247 34 32 107 307 622 35 100 495 35 156 676 380 5 619 74 2 7 264 9 9 0
split_gain=68.2777 36.1401 28.9457 26.5389 24.7661 21.6037 17.628 23.5392 17.5291 12.7934 12.15 11.2514 10.6074 7.72694 10.802 7.45095 11.1768 5.34199 9.19149 4.54627 2.76959 1.29255 0.928058 0.813084 0.545455 0.189024 3.55271e-15
threshold=-1.942032992839813 -11.441942691802977 -10.350546360015867 -1.6036611795425413 -22.730289459228512 1.9092537164688113 1.474129378795624 0.39510351419448858 19.102471351623539 -4.5355200767517081 1.1074323654174807 -0.42673589289188379 -0.85230794548988331 -3.4296973943710323 0.38419419527053839 2.5901261568069462 -0.4084328413009643 4.3226091861724862 -17.744853019714352 -2.4441082477569576 9.7035460472106951 17.614518165588382 -29.042125701904293 -4.6987705230712882 -7.5951530933380118 -7.365891456604003 -37.297636032104485
decision_type=2 2 2 2 2 2 2 2 2 2 2 2 2 2 2 2 2 2 2 2 2 2 2 2 2 2 2
left_child=13 8 3 10 -4 11 9 12 15 -6 -3 -5 -8 14 21 20 -17 22 -19 -11 23 -1 -15 -2 -13 -21 -25
right_child=1 2 4 5 6 -7 7 -9 -10 19 -12 24 -14 17 -16 16 -18 18 -20 25 -22 -23 -24 26 -26 -27 -28
leaf_value=-1.7094379124341004 -1.6594379124341003 -1.6594379124341003 -1.3761045791007669 -1.4344379124341005 -1.4844379124341005 -1.5308664838626718 -1.4844379124341003 -1.3712026183164532 -1.4344379124341002 -1.5844379124341004 -1.4344379124341002 -1.2594379124341004 -1.6933088801760356 -1.6594379124341003 -1.4978994508956387 -1.6800261477282179 -1.4927712457674336 -1.7094379124341004 -1.5094379124341002 -1.6844379124341002 -1.6094379124341003 -1.6344379124341002 -1.7094379124341004 -1.7094379124341001 -1.2094379124341001 -1.7094379124341004 -1.7094379124341004
leaf_weight=5.4000000804662687 4.0000000596046474 6.0000000894069689 6.0000000894069663 4.0000000596046474 4.0000000596046474 5.6000000834465018 4.0000000596046457 6.8000001013278952 4.0000000596046439 4.0000000596046474 4.0000000596046448 4.0000000596046466 6.2000000923872003 4.0000000596046439 5.2000000774860373 6.8000001013278961 6.0000000894069654 5.4000000804662704 4.000000059604643 4.000000059604651 4.0000000596046439 4.0000000596046448 51.600000768899918 5.8000000864267394 4.8000000715255702 12.400000184774393 11.60000017285347
leaf_count=27 20 30 30 20 20 28 20 34 20 20 20 20 31 20 26 34 30 27 20 20 20 20 258 29 24 62 58
internal_value=-1.60772 -1.55944 -1.51815 -1.43831 -1.56598 -1.36705 -1.5935 -1.51532 -1.63361 -1.64796 -1.56944 -1.29538 -1.6114 -1.67929 -1.61355 -1.65446 -1.59225 -1.69405 -1.62433 -1.68003 -1.68582 -1.67752 -1.70584 -1.70009 -1.23217 -1.70334 -1.70944
internal_weight=197.6 118 75.8 28.4 47.4 18.4 41.4 17 42.2 24.4 10 12.8 10.2 79.6 14.6 38.2 12.8 65 9.4 20.4 25.4 9.4 55.6 21.4 8.8 16.4 17.4
internal_count=988 590 379 142 237 92 207 85 211 122 50 64 51 398 73 191 64 325 47 102 127 47 278 107 44 82 87
is_linear=0
shrinkage=1


Tree=3
num_leaves=25
num_cat=0
split_feature=1 21 221 142 308 131 48 677 116 0 53 99 689 585 245 298 9 587 747 527 56 527 80 1
split_gain=37.8363 32.02 25.2093 18.6735 20.3306 16.6332 22.7227 18.0107 20.0012 11.3108 23.3539 8.24815 8.16846 8.09263 7.71436 5.27135 4.30898 7.01824 12.3556 2.83145 2.46154 1.74438 0.227679 0.147959
threshold=146.9847106933594 -10.995663166046141 -4.4904558658599845 -1.5365722775459287 -0.39165443181991572 -4.2650268077850333 -9.4100937843322736 -0.57309031486511219 0.34979210793972021 -98.215827941894517 -3.218227624893188 -12.954691410064695 -2.5532723665237422 -8.9953012466430646 -2.4064145088195796 15.632614612579347 -2.6584194898605342 -1.1638113260269163 0.67456030845642101 -3.7128989696502681 -1.4647488594055174 -1.5340404510498045 -11.184629917144774 -21.052468299865719
decision_type=2 2 2 2 2 2 2 2 2 2 2 2 2 2 2 2 2 2 2 2 2 2 2 2
left_child=1 2 -1 4 -4 6 -3 8 -8 10 -7 -11 -9 -13 -5 16 22 18 -18 -19 -12 -14 -15 -16
right_child=-2 5 3 14 -6 9 7 12 -10 11 20 13 21 15 23 -17 17 19 -20 -21 -22 -23 -24 -25
leaf_value=-1.3673326492762057 -1.3344379124341001 -1.3761045791007669 -1.3181335646080132 -1.5344379124341003 -1.6094379124341003 -1.4281879124341004 -1.4038823568785448 -1.5344379124341003 -1.6558664838626718 -1.5487236267198146 -1.6094379124341003 -1.5494379124341002 -1.6344379124341002 -1.6844379124341002 -1.6844379124341002 -1.5730742760704639 -1.6794379124341003 -1.6185288215250093 -1.4997604930792616 -1.7054696584658462 -1.7094379124341004 -1.7094379124341001 -1.7094379124341004 -1.7094379124341004
leaf_weight=7.6000001132488277 4.8000000715255728 4.8000000715255728 4.6000000685453415 4.0000000596046474 5.0000000745058113 6.4000000953674343 7.2000001072883588 4.0000000596046439 5.6000000834465027 5.6000000834465018 4.0000000596046457 5.0000000745058051 4.0000000596046474 4.0000000596046439 4.0000000596046466 4.4000000655651084 10.00000014901161 4.4000000655651084 6.2000000923871985 25.200000375509269 6.400000095367429 13.800000205636026 40.800000607967377 5.8000000864267243
leaf_count=38 24 24 23 20 25 32 36 20 28 28 20 25 20 20 20 22 50 22 31 126 32 69 204 29
internal_value=-1.61177 -1.61867 -1.52557 -1.57696 -1.46985 -1.63651 -1.58 -1.60828 -1.51413 -1.6547 -1.57849 -1.66682 -1.66357 -1.67344 -1.65147 -1.67996 -1.68516 -1.66359 -1.61067 -1.69255 -1.67098 -1.69258 -1.70721 -1.69923
internal_weight=197.6 192.8 31 23.4 9.6 161.8 39.4 34.6 12.8 122.4 16.8 105.6 21.8 100 13.8 95 90.6 45.8 16.2 29.6 10.4 17.8 44.8 9.8
internal_count=988 964 155 117 48 809 197 173 64 612 84 528 109 500 69 475 453 229 81 148 52 89 224 49
is_linear=0
shrinkage=1


Tree=4
num_leaves=29
num_cat=0
split_feature=3 478 304 451 582 303 731 69 755 406 595 5 691 3 183 394 47 357 606 741 86 124 262 2 14 0 0 0
split_gain=34.405 37.5169 21.6698 21.1555 22.2118 18.8755 18.3452 15.1374 23.0098 15.241 13.3606 10.6399 13.6826 15.899 10.2293 10.2122 8.5186 7.55273 5.20104 2.78692 5.04167 2.26087 1.73276 0.683394 0.203704 0.171875 0.125 3.55271e-15
threshold=-17.479804992675778 -1.3615105152130125 3.2982052564620976 -4.4403371810913077 -3.3918238878250118 3.83722996711731 -1.5998792648315427 -6.9146947860717765 1.8909291028976443 2.4744923114776616 -8.9933791160583478 -5.0662109851837149 -1.561093747615814 18.580674171447757 -5.0087907314300528 2.1309807300567631 -4.4725377559661856 8.7102732658386248 1.0474001765251162 -1.9907584786415098 -2.5015634298324581 -0.21955519914627072 -2.8049002885818477 59.280542373657234 15.139006137847902 -1.0000000180025095e-35 -19.638482093811032 -51.377925872802727
decision_type=2 2 2 2 2 2 2 2 2 2 2 2 2 2 2 2 2 2 2 2 2 2 2 2 2 2 2 2
left_child=1 2 5 -3 -5 6 -1 8 9 16 -9 12 13 -12 -6 22 -2 19 24 20 -13 -8 -14 -21 27 -18 -22 -16
right_child=7 3 -4 4 14 -7 21 10 -10 -11 11 17 15 -15 18 -17 25 -19 -20 23 26 -23 -24 -25 -26 -27 -28 -29
leaf_value=-1.5094379124341004 -1.5344379124341005 -1.4380093410055288 -1.641256094252282 -1.4294379124341003 -1.5427712457674336 -1.5555917585879464 -1.3094379124341005 -1.4821651851613731 -1.3880093410055288 -1.4686971716933594 -1.3594379124341003 -1.5594379124341002 -1.6344379124341002 -1.6380093410055288 -1.7094379124341001 -1.5476732065517473 -1.6844379124341 -1.5636045791007669 -1.6033773063734942 -1.7094379124341004 -1.7094379124341004 -1.2094379124341001 -1.7094379124341001 -1.6709763739725618 -1.6844379124341002 -1.7094379124341004 -1.6844379124341002 -1.7094379124341001
leaf_weight=4.0000000596046474 4.0000000596046528 7.0000001043081275 4.4000000655651084 5.0000000745058051 6.600000098347663 5.2000000774860373 4.0000000596046474 4.4000000655651084 5.6000000834465018 5.4000000804662696 4.000000059604643 4.0000000596046439 4.0000000596046474 4.200000062584877 6.0000000894069734 6.8000001013278952 4.0000000596046528 4.8000000715255728 6.600000098347663 41.400000616908073 4.0000000596046439 5.2000000774860373 13.400000199675562 5.2000000774860373 4.0000000596046439 8.8000001311302096 4.0000000596046439 11.600000172853472
leaf_count=20 20 35 22 25 33 26 20 22 28 27 20 20 20 21 30 34 20 24 33 207 20 26 67 26 20 44 20 58
internal_value=-1.60367 -1.54708 -1.44189 -1.59833 -1.62652 -1.39422 -1.33065 -1.63444 -1.56915 -1.61484 -1.65255 -1.66038 -1.61376 -1.50212 -1.65484 -1.65159 -1.66182 -1.6842 -1.68107 -1.69408 -1.6511 -1.25292 -1.6922 -1.70515 -1.70481 -1.70163 -1.69694 -1.70944
internal_weight=197.6 69.6 22.8 46.8 39.8 18.4 13.2 128 27.8 22.2 100.2 95.8 32.4 8.2 34.8 24.2 16.8 63.4 28.2 58.6 12 9.2 17.4 46.6 21.6 12.8 8 17.6
internal_count=988 348 114 234 199 92 66 640 139 111 501 479 162 41 174 121 84 317 141 293 60 46 87 233 108 64 40 88
is_linear=0
shrinkage=1


Tree=5
num_leaves=28
num_cat=0
split_feature=5 0 294 186 0 26 353 55 522 57 497 73 273 750 688 147 609 219 297 755 27 655 751 92 54 611 247
split_gain=71.8996 38.3125 24.6825 22.658 19.7438 19.7051 13.4118 14.5548 11.6715 7.97493 7.73383 7.85794 7.45329 6.15428 13.359 4.75483 4.52524 4.02966 3.07042 3.2985 1.98429 0.959667 1.26219 0.379747 0.226691 0.198937 0.00186156
threshold=-14.924767494201658 -42.726619720458977 -3.0396080017089839 2.9323103427886967 53.117967605590827 -13.827116966247557 -0.68866607546806324 0.40960016846656805 -0.40359990298748011 -2.6315205097198482 10.454040050506594 -20.18296909332275 3.3430314064025883 5.3459300994873056 1.6427378654479983 5.5852651596069345 0.57348310947418224 -1.4623327255249021 14.921333789825441 7.5060749053955087 -12.323802471160887 -4.7604248523712149 -0.19384716451168058 2.3759895563125615 -14.663802623748778 -1.3128257989883421 1.2213113903999331
decision_type=2 2 2 2 2 2 2 2 2 2 2 2 2 2 2 2 2 2 2 2 2 2 2 2 2 2 2
left_child=1 9 8 12 10 -6 7 16 -3 -1 11 -2 17 18 -15 26 -7 -4 19 20 -13 22 -22 -19 -23 -11 -8
right_child=4 2 3 -5 5 6 15 -9 -10 25 -12 13 -14 14 -16 -17 -18 23 -20 -21 21 24 -24 -25 -26 -27 -28
leaf_value=0.077578204780834659 0.065280645765489906 0.12346592585087 0.20388816394736065 0.025464076477676817 0.22494636735713869 -0.099086932640038677 -0.097813106491594762 0.18608365370935961 -0.1022280828019434 -0.070492387993936798 0.072448289152057324 -0.019341170217951564 0.12983887387326259 -0.098091776327068878 0.13541071850415223 0.027663962109153763 0.053498692072056556 0.32340767131726045 0.0055608730875851345 0.0044301294237052346 -0.098852001855685795 -0.073433834472881918 -0.018289596537829772 0.2871409373180972 -0.098290617011272896 -0.099320815322604533 -0.10036480629766209
leaf_weight=3.9427872300148019 4.2220065444707862 4.3870164304971695 5.7867760062217757 6.2023166716098777 4.2715992629528037 3.8597998321056384 4.8202561587095243 5.8966355174779892 4.7965409755706769 3.6882302165031424 4.0470678359270087 3.7906587123870841 4.6809923797845832 5.8110918402671796 4.2362798303365707 3.925361916422843 3.9151255339384079 6.0472285300493276 3.8310302048921576 3.8655708581209174 4.0350761264562607 3.8761330842971793 3.7539714425802222 5.5251319706439972 68.651695311069489 6.8200700134038899 7.0267973840236664
leaf_count=20 21 20 25 29 20 20 26 28 23 20 20 20 21 31 21 20 20 26 20 20 21 20 20 22 364 35 35
internal_value=-0.00632477 0.0946004 0.148001 0.19431 -0.0427252 0.0242324 -0.00488624 0.067605 0.00558671 -0.0436986 -0.0632256 -0.068402 0.241824 -0.0739435 0.000360032 -0.0677218 -0.0222512 0.272022 -0.0820756 -0.0858919 -0.0900431 -0.09338 -0.0600245 0.306092 -0.0969622 -0.0892025 -0.0993266
internal_weight=195.713 51.8771 37.426 28.2424 143.836 33.7156 29.444 13.6716 9.18356 14.4511 110.121 106.074 22.0401 101.852 10.0474 15.7724 7.77493 17.3591 91.8041 87.9731 84.1075 80.3169 7.78905 11.5724 72.5278 10.5083 11.8471
internal_count=988 241 166 123 747 169 149 68 43 75 578 558 94 537 52 81 40 73 485 465 445 425 41 48 384 55 61
is_linear=0
shrinkage=0.1


Tree=6
num_leaves=31
num_cat=0
split_feature=3 10 4 45 35 509 634 127 122 181 7 162 101 195 605 500 619 106 162 75 529 437 214 19 32 136 107 685 333 188
split_gain=37.1179 28.6353 22.3849 28.407 18.225 16.5009 15.9044 13.0486 12.8594 11.2663 12.7374 15.8982 10.5868 8.29611 7.89705 13.9237 7.56052 10.1859 4.74051 4.21043 8.41278 4.58168 3.65079 2.81715 0.985226 0.218799 0.215945 0.168417 0.00269023 0.00127553
threshold=-4.4207551479339591 -12.529634952545164 -1.7654015421867368 -4.9208335876464835 -2.6279737949371333 -4.7714192867279044 0.044201271608471877 3.4549332857131962 7.3677880764007577 -2.032981157302856 14.92955541610718 -3.1186619997024532 -0.020789413712918755 -0.8042861521244048 -0.40935415029525751 -0.68245595693588246 -0.47060075402259821 1.8124846220016482 2.6873550415039067 -5.7045745849609366 1.360117554664612 -5.9153051376342765 2.1424615383148198 9.2881412506103533 14.72991466522217 4.8759281635284433 5.5659477710723886 0.2225763872265816 -1.3787916898727415 -1.5079950690269468
decision_type=2 2 2 2 2 2 2 2 2 2 2 2 2 2 2 2 2 2 2 2 2 2 2 2 2 2 2 2 2 2
left_child=1 18 3 12 6 -4 -5 13 16 10 14 -12 -3 -6 15 -2 28 22 26 20 -11 -21 -18 25 -23 29 -1 -15 -7 -16
right_child=9 2 5 4 7 8 -8 -9 -10 19 11 -13 -14 27 23 -17 17 -19 -20 21 -22 24 -24 -25 -26 -27 -28 -29 -30 -31
leaf_value=-0.098077817939334511 0.14641124982041426 0.12814107783259249 0.17417743451194581 0.039249087934324967 0.076142457837680089 -0.10231217285870581 0.30102422312609628 0.15857284568878283 0.12817741898380777 -0.08321908568112249 -0.049846940511438925 0.21199472178057566 0.32377012249542236 -0.073144913382152857 -0.10128945231567642 -0.060645751609632315 -0.10038345627975456 0.1170783516285844 0.022709130856123614 0.01260550900876125 0.10171749700434798 -0.098168519603772916 0.02155869792236545 0.0021974468245967191 -0.044344284221167908 -0.072148595869359872 -0.070063310544592208 -0.10028331158731002 -0.099126228627612112 -0.099084053044160236
leaf_weight=11.071145147085192 5.6379571855068207 4.3214529901742935 5.7428117096424094 4.2269075065851229 4.4641489684581783 4.210746243596077 5.1470826864242554 4.5644039511680594 5.6103030294179908 6.4763255566358549 4.0550502091646194 5.4158246368169767 7.6869922578334791 3.860719829797743 4.1341694891452754 7.6604118496179563 6.1854991465806943 5.4615528881549844 4.8678888529539099 4.5102175474166861 3.9661416262388229 38.562330886721611 4.0710470229387283 3.9229464828968039 3.7297154366970053 3.7979907989501944 3.6615681648254386 5.6090347319841385 7.1524693965911865 7.1721327304840141
leaf_count=59 27 20 26 20 21 20 22 21 26 34 21 26 34 20 20 39 31 26 24 24 20 205 20 20 20 20 20 28 37 37
internal_value=0.00158983 0.0452502 0.0723045 0.124789 0.0693921 0.0178446 0.182985 0.011829 -0.00961774 -0.0415744 -0.00210323 0.0998846 0.25337 -0.0362406 -0.031984 0.0271378 -0.0381641 0.00676127 -0.0628465 -0.0703938 -0.0129785 -0.0832042 -0.051982 -0.073305 -0.0934218 -0.0929147 -0.0911153 -0.0892193 -0.100307 -0.0998905
internal_weight=196.957 97.9158 78.3152 39.8807 27.8723 38.4344 9.37399 18.4983 32.6916 99.0412 41.7965 9.47087 12.0084 13.9339 32.3256 13.2984 27.0813 15.7181 19.6006 57.2447 10.4425 46.8023 10.2565 19.0272 42.292 15.1043 14.7327 9.46975 11.3632 11.3063
internal_count=988 475 372 186 132 186 42 90 160 513 210 47 54 69 163 66 134 77 103 303 54 249 51 97 225 77 79 48 57 57
is_linear=0
shrinkage=0.1


Tree=7
num_leaves=31
num_cat=0
split_feature=5 29 245 10 455 52 35 68 387 342 72 674 411 656 150 7 729 27 329 641 59 37 649 494 657 560 60 5 346 563
split_gain=55.7003 26.2978 25.4348 19.2835 17.5063 17.4026 21.75 22.196 17.122 10.5998 10.52 10.3614 9.84219 9.78383 8.46112 6.15478 8.2031 4.12647 3.59758 2.66773 2.28534 0.740832 0.218423 0.0023098 0.00223769 0.00219404 0.00161319 0.00138293 0.0010195 0.000929834
threshold=-1.942032992839813 6.5339167118072519 10.268118381500246 7.5261688232421884 -9.1061296463012678 2.9403113126754765 4.6104166507720956 -7.3588168621063224 5.1833178997039804 -1.2720086574554441 8.9878764152526873 -0.70208382606506337 1.0674834251403811 -5.737492322921752 -5.2684779167175284 -24.920673370361325 -1.0000000180025095e-35 -6.4108173847198477 -7.2584128379821768 0.69791629910469066 4.8943076133728036 -10.670668601989744 2.3464115858078007 0.18518889695405963 -0.083785515278577791 -0.094421967864036546 1.6082304716110232 -11.587679386138914 2.0851099491119389 -5.8891391754150382
decision_type=2 2 2 2 2 2 2 2 2 2 2 2 2 2 2 2 2 2 2 2 2 2 2 2 2 2 2 2 2 2
left_child=13 2 3 4 -2 6 7 -6 12 -7 17 -8 -9 -1 -3 16 -15 -5 -17 24 23 -20 26 25 -11 -16 -19 29 -29 -23
right_child=1 14 -4 10 5 9 11 8 -10 19 -12 -13 -14 15 20 18 -18 22 21 -21 -22 27 -24 -25 -26 -27 -28 28 -30 -31
leaf_value=0.048240504820009279 0.25765864457671561 0.060975647058647747 0.23045876150447508 0.0234436054098386 0.25450756113968298 0.096699884535949104 0.3319009124930753 -0.066202138076330241 0.19251256823293539 -0.099094157427299379 0.11058021121504308 0.13825473762239046 0.07236331274289512 -0.097986610776635133 -0.098869740225035918 0.0054466912366906636 0.11030843255193822 -0.098445340177168522 -0.05789558322482681 -0.0023407302912778804 -0.02166364726678343 -0.099279233194852143 -0.071496162562698334 -0.098044037920114763 -0.10230859575213624 -0.10217535879229543 -0.10105107588533904 -0.098446102671858854 -0.10019901962307882 -0.097677214921719574
leaf_weight=6.7785576432943335 4.9847905635833731 5.5360367149114635 8.6461489051580411 4.0225476920604768 4.7282544821500769 5.5089774131774929 4.5665555149316788 14.399816140532502 4.7317067980766288 4.4586298018693924 4.2167113423347464 6.996684253215788 7.9594292640686026 3.7391930967569351 3.8504399359226253 3.8326695263385764 3.8245287090539923 4.1674555540084821 5.0013163685798636 4.0489299297332755 5.1153631061315528 4.0830586552619854 3.7451511025428763 6.3643720000982276 4.2110755145549756 4.1959537118673316 5.5266146212816238 10.817911610007284 4.7856986969709387 32.155721127986915
leaf_count=35 23 27 39 20 21 26 20 71 22 23 20 32 37 20 20 20 20 22 27 20 26 21 20 34 20 20 27 57 24 174
internal_value=0.00146174 0.0431614 0.0667725 0.0507399 0.0774068 0.0628228 0.0972728 0.0545885 0.0196961 -0.0191695 -0.031179 0.214729 -0.0168757 -0.0663427 -0.0481466 -0.0777247 0.00733593 -0.0654113 -0.0883281 -0.0693574 -0.0790849 -0.0946508 -0.0920069 -0.0994676 -0.100655 -0.100594 -0.0999309 -0.0981966 -0.0989837 -0.0978577
internal_weight=197 121.982 96.9195 88.2733 66.5948 61.6101 43.3824 31.8192 27.091 18.2276 21.6785 11.5632 22.3592 75.0187 25.0622 68.2401 7.56372 17.4618 60.6764 12.7186 19.5261 56.8437 13.4392 14.4108 8.66971 8.04639 9.69407 51.8424 15.6036 36.2388
internal_count=988 590 463 424 315 292 203 151 130 89 109 52 108 398 127 363 40 89 323 63 100 303 69 74 43 40 49 276 81 195
is_linear=0
shrinkage=0.1


Tree=8
num_leaves=31
num_cat=0
split_feature=1 21 78 2 182 240 349 30 171 264 685 352 295 708 698 3 639 182 395 684 41 64 1 708 646 582 730 695 510 703
split_gain=28.4929 29.4889 24.4405 22.2762 19.6449 16.4183 16.3193 16.1345 18.2836 11.4315 16.2769 22.2219 13.1688 8.33702 7.24763 6.77101 5.87969 10.975 3.32429 3.30031 5.62757 0.648448 0.00331384 0.00146994 0.0014155 0.00136762 0.000933365 0.000666015 0.000571474 0.000230095
threshold=72.77496719360353 -9.9914598464965803 0.49766179919242864 -21.745887756347653 -1.4295846819877622 2.1696041822433476 0.052365597337484367 -10.667154788970945 4.3724761009216317 -2.3981505632400508 -1.6519553661346433 0.75950312614440929 -3.9990894794464107 -0.32492089271545405 -0.44685004651546473 59.516082763671882 3.3507205247879033 0.41336295008659368 -5.1487333774566642 -1.7100099325180051 1.4789172410964968 2.8481423854827885 -64.31591415405272 -1.2209350466728208 -0.16907463222742078 -1.4961609840393064 -0.82368212938308705 0.89167168736457836 2.4552184343338017 0.27139118313789373
decision_type=2 2 2 2 2 2 2 2 2 2 2 2 2 2 2 2 2 2 2 2 2 2 2 2 2 2 2 2 2 2
left_child=1 2 13 -2 -4 -6 -5 8 14 10 11 -9 -12 -1 -3 16 19 26 -14 20 -11 -15 -21 24 -24 -20 -18 29 -25 -27
right_child=3 7 4 6 5 -7 -8 9 -10 15 12 -13 18 21 -16 -17 17 -19 25 22 -22 -23 23 28 -26 27 -28 -29 -30 -31
leaf_value=0.089081025434575786 0.25991791632531519 0.065166101604465843 -0.0023382880752810462 -0.070171548258169555 0.30734920675814636 0.07561950880496468 0.17427424886603926 0.24552071979563972 0.18021901319454886 0.025346623943026184 0.082519852675539393 -0.04245627729217321 0.0034874048527006479 -0.10079134028719992 -0.098566835317675267 0.02961857467723596 -0.099889501325638702 0.065720047354690933 -0.10036812318465867 -0.1011435735559064 -0.098533252949687733 -0.048110975689026059 -0.09826695988971991 -0.098022028090311061 -0.10054644691726533 -0.097352043571201918 -0.097783994104630845 -0.099502220428934696 -0.0989543160621352 -0.098449934887790413
leaf_weight=4.1795205622911462 6.8359465897083309 4.8586063086986551 6.0855211168527612 6.5949291586875898 7.74809730052948 5.0504434853792191 4.6615245640277863 5.4631209075450879 7.0840792059898368 6.4117199927568427 6.5594721883535412 5.2590488344430923 3.8857857882976559 5.8514801710844004 6.0948550850152978 6.8924151808023444 4.1507446467876443 7.8142318874597541 5.4100235402584138 5.7071346789598456 8.5665741562843305 3.8898085355758667 4.7156603932380676 25.449479818344116 6.450615316629408 3.8400693535804695 4.2726827710866937 3.9133258610963821 8.8654478639364225 3.7958796322345734
leaf_count=20 30 25 30 33 34 24 21 26 34 33 33 27 20 29 32 34 21 39 27 28 45 20 25 136 32 21 23 20 46 20
internal_value=-0.0020425 -0.014178 0.0714665 0.11753 0.145575 0.215906 0.0310584 -0.0334929 0.055027 -0.0460234 -0.000185001 0.104273 -0.0410546 -0.0290648 -0.0259401 -0.0655948 -0.0735586 -0.0196373 -0.0799407 -0.0867912 -0.0455043 -0.0797555 -0.0988722 -0.0985872 -0.0995838 -0.0990561 -0.0988215 -0.0984414 -0.0982629 -0.0978978
internal_weight=196.358 178.266 32.8049 18.0924 18.8841 12.7985 11.2565 145.461 18.0375 127.423 38.1267 10.7222 27.4046 13.9208 10.9535 89.2967 82.4043 16.2377 20.8451 66.1666 14.9783 9.74129 51.1883 45.4812 11.1663 16.9593 8.42343 11.5493 34.3149 7.63595
internal_count=988 904 157 84 88 58 54 747 91 656 194 53 141 69 57 462 428 83 108 345 78 49 267 239 57 88 44 61 182 41
is_linear=0
shrinkage=0.1


Tree=9
num_leaves=31
num_cat=0
split_feature=3 478 315 570 467 383 69 105 296 448 4 715 541 250 737 148 555 21 691 614 195 588 747 78 5 171 451 691 472 378
split_gain=27.6837 26.2503 21.679 19.7527 22.2911 14.506 12.9641 17.3121 23.2205 12.8335 11.3514 10.3687 13.1315 19.2685 9.04956 8.36827 10.4455 7.70512 6.50509 9.76858 6.24929 4.63106 2.45942 0.917614 0.889385 0.680823 0.00355146 0.00189918 0.000921443 0.00085581
threshold=-17.479804992675778 -1.3615105152130125 3.2720774412155156 2.1038581132888798 5.6089529991149911 -1.0000000180025095e-35 -6.9146947860717765 0.95418578386306774 -0.18430001288652417 -2.1109102964401241 62.923091888427741 0.58078244328498851 -3.1544710397720332 -0.54676818847656239 1.3483560085296633 3.4091329574584965 -0.47164674103260035 -11.186774730682371 -0.88840016722679127 1.1180261969566347 2.9515256881713872 4.7177908420562753 -2.870506644248962 -6.8388655185699454 -34.473894119262688 1.1438209414482119 -1.3523597717285154 -3.0015131235122676 -2.7767585515975948 1.2823580503463747
decision_type=2 2 2 2 2 2 2 2 2 2 2 2 2 2 2 2 2 2 2 2 2 2 2 2 2 2 2 2 2 2
left_child=1 2 9 4 15 -5 7 14 -9 -1 11 21 13 -13 25 23 -17 -14 19 -19 -11 22 -8 -3 -24 -2 -25 -26 -20 -28
right_child=6 3 -4 5 -6 -7 10 8 -10 20 -12 12 17 -15 -16 16 -18 18 28 -21 -22 -23 24 26 27 -27 29 -29 -30 -31
leaf_value=0.059216304254551377 -0.10003443225234231 -0.045279999090208654 -0.0069279673765369355 -0.010385319783136731 0.18127124615688778 0.22489329104854341 -0.020272113714865023 -0.030309507149408711 0.23933321943654293 0.30326272856085024 0.1243530541791753 0.25426332320835043 0.081424635742428711 -0.037844308701352782 0.090703939137440875 -0.07964897871619403 0.12563219156112768 0.12036324692432482 -0.10002020945547214 -0.099085245886104165 0.15969127232730082 0.0013331797758410315 -0.049214286854652012 -0.10153050561380161 -0.10014602773069055 -0.04833417432386574 -0.097805353122156435 -0.098257398617645778 -0.09832396790574964 -0.099535570098912396
leaf_weight=4.9192629903554979 7.3264515399932879 3.7684017568826702 7.4051951020956031 4.4322309195995331 4.5661778301000586 6.4107391536235792 5.0595495402812949 5.6764019578695297 7.301992788910864 8.0289486646652204 4.0037942081689826 4.2083501517772675 4.399600654840472 4.8730856478214246 4.1531075686216345 5.0622942000627518 4.8569571375846845 4.0632506310939807 4.3800714015960738 4.050606906414032 4.8710980713367453 6.9030106365680686 4.0274346619844428 6.1982605755329176 6.3557098358869544 3.9045852422714233 6.5051902234554291 32.813497290015221 11.912370949983593 5.0999662578105927
leaf_count=23 37 20 36 22 21 30 26 28 34 34 20 20 22 25 20 26 24 20 22 21 21 35 21 30 32 20 35 174 63 26
internal_value=0.00525374 0.0546184 0.136881 0.0103749 -0.0252131 0.12872 -0.0231358 0.0363381 0.121399 0.196644 -0.0405168 -0.0476111 -0.00733253 0.0975188 -0.0354208 -0.0551532 0.0208669 -0.0403883 -0.0623469 0.01081 0.24905 -0.0752774 -0.0862365 -0.0901091 -0.0939628 -0.0820603 -0.0995979 -0.0985639 -0.09878 -0.0985657
internal_weight=197.538 72.1247 25.2245 46.9002 36.0572 10.843 125.413 28.3625 12.9784 17.8193 97.0503 93.0465 37.8873 9.08144 15.3841 31.4911 9.91925 28.8059 24.4063 8.11386 12.9 55.1592 48.2562 21.5718 43.1966 11.231 17.8034 39.1692 16.2924 11.6052
internal_count=988 348 114 234 182 52 640 139 62 78 501 481 193 45 77 161 50 148 126 41 55 288 253 111 227 57 91 206 85 61
is_linear=0
shrinkage=0.1


Tree=10
num_leaves=31
num_cat=0
split_feature=0 213 26 3 1 4 3 54 52 177 66 8 191 100 106 54 755 746 33 754 162 92 408 10 676 537 663 10 50 391
split_gain=44.4073 21.1077 21.1108 22.2733 17.5033 14.7348 10.3176 14.9932 10.0205 9.81655 9.62902 13.8597 8.76725 5.22628 4.68431 7.78988 3.1795 2.83082 2.49377 1.23932 2.83172 0.00401921 0.00351117 0.00211598 0.00197748 0.00192701 0.00192489 0.00253647 0.00117041 0.00115916
threshold=45.316934585571296 -2.6004686355590816 -8.6257309913635236 42.392229080200202 -5.6346349716186515 80.808834075927749 8.8987331390380877 -10.987421512603758 0.4857813715934754 0.1055630035698414 -2.8898812532424922 0.64569708704948436 11.409993648529055 12.556584358215334 -0.75503671169280995 2.6954375505447392 6.1978898048400888 0.99899521470069896 -0.24316188693046567 -2.0921857357025142 -2.1278831958770748 -2.655671119689941 -0.27466884255409235 19.287941932678226 0.012221676763147117 -0.95386299490928639 -0.59290909767150868 -13.29933977127075 -2.6602785587310787 -1.4401187896728513
decision_type=2 2 2 2 2 2 2 2 2 2 2 2 2 2 2 2 2 2 2 2 2 2 2 2 2 2 2 2 2 2
left_child=5 8 -3 4 9 6 12 -8 22 -4 11 -9 13 16 21 -16 19 24 -13 20 -1 -12 -2 26 -6 -22 28 -28 -21 -23
right_child=1 2 3 -5 17 -7 7 10 -10 -11 14 18 -14 -15 15 -17 -18 -19 -20 23 25 29 -24 -25 -26 -27 27 -29 -30 -31
leaf_value=-0.0068915521477860009 -0.10062093859874757 0.23835883736924157 -0.001948491032614954 0.22125996522927849 -0.09690227682203105 0.14596434495346597 0.12318925792532814 0.13011542121110281 0.059535878585723338 0.18029463648592703 -0.099590117828984193 0.0091217499924728541 0.079782943271423198 0.014118723681541479 0.0544024644175964 -0.097534983982992443 -0.010809816826377475 0.0066984944522802238 -0.098171551083457764 -0.097334255296871813 -0.099026983632894278 -0.095048862115920743 -0.096664666626338075 -0.099153548571540545 -0.10004508367316188 -0.09611651955228874 -0.099508230158055613 -0.097007238650071562 -0.095484594601744605 -0.097174319251993227
leaf_weight=5.4818720370531073 4.6019047945737848 9.3852946013212186 5.0305037498474139 7.2281174510717383 3.5841317772865313 4.2674604803323737 7.3503157943487158 7.6379578858613995 7.2215368747711173 7.1661400645971298 6.2093647420406368 3.7143322080373773 3.888150915503501 6.1182524114847174 6.9778391420841199 6.5344449728727341 5.6683076769113532 3.7181054055690756 5.1975985169410679 5.0839212834835044 3.8509925454854956 3.9839530140161532 4.3767801523208627 4.9620527774095526 4.5355928242206573 5.5583360791206351 5.0504823029041246 20.576202660799041 10.458779692649832 7.2086879462003708
leaf_count=30 23 37 26 30 20 18 33 36 33 30 32 20 20 32 34 36 30 19 28 28 20 24 25 26 23 32 26 115 62 40
internal_value=-0.00584243 0.0683615 0.10683 0.0673437 0.021055 -0.0369101 -0.0428443 -0.00971213 -0.0281593 0.105128 -0.0302933 0.0312655 -0.0665233 -0.0743364 -0.0632486 -0.0190734 -0.0824513 -0.0655668 -0.0534536 -0.089106 -0.064023 -0.0975497 -0.0986924 -0.0972027 -0.0986578 -0.0973077 -0.0969676 -0.0975001 -0.0960896 -0.0964178
internal_weight=192.627 56.8481 40.6479 31.2626 24.0345 135.779 131.512 54.8145 16.2002 12.1966 47.4642 16.5499 76.6974 72.8092 30.9143 13.5123 66.6909 11.8378 8.91193 61.0226 14.8912 17.402 8.97868 46.1314 8.11972 9.40933 41.1694 25.6267 15.5427 11.1926
internal_count=988 266 185 148 118 722 704 283 81 56 250 84 421 401 166 70 369 62 48 339 82 96 48 257 43 52 231 141 90 64
is_linear=0
shrinkage=0.1


Tree=11
num_leaves=31
num_cat=0
split_feature=3 10 634 360 59 279 590 686 30 52 543 267 740 40 26 8 145 557 440 353 435 616 390 536 405 703 134 5 756 181
split_gain=30.7971 22.8552 17.597 16.0314 15.7616 13.7495 13.4356 13.3587 12.0152 10.2703 13.9637 10.0402 9.59227 9.01784 6.44511 5.92635 8.41289 4.7469 4.31182 3.8912 7.48091 3.5234 6.48302 1.94307 1.12321 0.446286 0.26908 0.235462 0.228481 0.00330473
threshold=-4.4207551479339591 -12.529634952545164 -0.27993963658809656 -2.0827637910842891 -1.1053990721702573 1.3931495547294619 0.64254745841026317 -1.6379066109657285 1.8334299325942995 0.8731437921524049 7.5099253654479989 -2.0257215499877925 -3.3807667493820186 1.0000000180025095e-35 -4.0377602577209464 22.141176223754886 0.5061088800430299 0.86919566988945018 -2.5086770057678218 3.7347557544708256 1.6609988212585451 -1.0632225275039671 0.50836336612701427 -5.0752587318420401 0.61501008272171032 -0.12949685752391812 -9.3675498962402326 -13.420277595520018 0.68816494941711437 -1.9767053127288816
decision_type=2 2 2 2 2 2 2 2 2 2 2 2 2 2 2 2 2 2 2 2 2 2 2 2 2 2 2 2 2 2
left_child=1 17 4 8 18 11 7 -5 24 19 12 -6 -11 -8 -9 21 -17 28 -3 23 -21 22 -14 -2 -4 -16 -25 -23 -1 -28
right_child=9 2 3 6 5 -7 13 14 -10 10 -12 -13 15 -15 25 16 -18 -19 -20 20 -22 27 -24 26 -26 -27 29 -29 -30 -31
leaf_value=-0.097146324712633916 -0.032152289123413877 0.011118674782829633 -0.027269625473564759 0.045745900727193679 0.11556753842982964 0.18565140629793336 0.14213240235720434 0.1323210249173904 0.12494261961267746 0.086420554201507072 0.17493665148773496 -0.071768675195519743 0.081510226333041849 -0.0437332676958486 0.24801705573575467 -0.07387103260056764 0.1256651068876726 0.025509703295627836 -0.099347114055494012 -0.082829524572330573 0.086760321877758909 -0.069201020773577843 -0.097775851978842698 -0.067576201349167905 -0.10171460834258993 0.28651911369558375 -0.098520644362678877 -0.097914190686168773 -0.067470526813164455 -0.096259577704452648
leaf_weight=10.263996914029123 6.0005768686532965 5.2523641288280514 4.0022004246711713 5.2154292017221442 4.9261768609285363 6.774396985769271 5.1651128530502302 4.9254804998636272 5.6549304276704779 6.8474962264299384 3.9629963189363471 6.8238325417041787 3.8502626717090589 5.2776287198066711 5.7800347059965134 4.0838873982429487 4.3784158825874329 4.8413792103528968 10.797364160418509 6.7283838242292386 4.2403274327516556 3.581708252429963 4.2357108443975449 3.4748565107583955 4.1059252023696899 6.2831422537565249 9.3868516832590085 14.095831155776981 3.4720982015132895 20.76052866876126
leaf_count=57 32 25 20 23 22 29 22 21 26 33 19 34 20 27 22 22 21 26 56 37 21 20 23 20 20 25 50 76 20 119
internal_value=0.00147112 0.0404001 0.0633479 0.103582 0.00934101 0.0721883 0.141742 0.185737 0.0130618 -0.0390592 -0.00432503 0.0067718 -0.0216213 0.0481983 0.228713 -0.043237 0.0293694 -0.0596352 -0.0631966 -0.0699794 -0.0172688 -0.0670853 -0.012406 -0.0845712 -0.0649683 0.268071 -0.0939264 -0.0920965 -0.0896451 -0.0969636
internal_weight=195.189 99.5615 80.984 46.4099 34.5741 18.5244 32.6468 22.2041 13.7631 95.6278 45.0363 11.75 41.0733 10.4427 16.9887 34.2258 8.4623 18.5775 16.0497 50.5915 10.9687 25.7635 8.08597 39.6228 8.10813 12.0632 33.6222 17.6775 13.7361 30.1474
internal_count=988 475 372 206 166 85 140 91 66 513 234 56 215 49 68 182 43 103 81 279 58 139 43 221 40 47 189 96 77 169
is_linear=0
shrinkage=0.1


Tree=12
num_leaves=31
num_cat=0
split_feature=5 29 10 91 585 387 51 32 477 6 656 72 150 9 7 29 385 329 45 59 35 521 37 51 495 10 735 5 462 746
split_gain=46.0033 20.6688 18.9874 19.2767 17.2057 13.7247 13.6003 12.5026 14.8425 11.8667 8.7276 8.23125 7.41908 6.80892 5.81195 7.34623 5.68559 3.53985 2.86975 2.19983 1.69772 1.64748 0.750466 0.00393918 0.00204478 0.00199101 0.00177431 0.00147578 0.000639625 0.000627677
threshold=-1.942032992839813 6.5339167118072519 6.0336651802062997 -5.2023484706878653 0.60312253236770641 5.2019908428192148 1.2220244407653811 1.5276230573654177 0.75888767838478099 -12.56628894805908 -5.737492322921752 8.9878764152526873 -5.2684779167175284 -5.8641836643218985 -24.920673370361325 4.4771578311920175 -3.9408994913101192 -7.2584128379821768 3.7990632057189946 4.8943076133728036 5.2250876426696786 3.9887084960937504 -10.670668601989744 -2.9182050228118892 -4.099618434906005 -1.9247738718986509 0.065098498016595854 -12.886977195739744 -0.53890866041183461 -0.83997324109077443
decision_type=2 2 2 2 2 2 2 2 2 2 2 2 2 2 2 2 2 2 2 2 2 2 2 2 2 2 2 2 2 2
left_child=10 2 3 6 5 9 18 8 -6 -5 -1 16 -3 -9 15 -12 -4 -16 -2 25 26 23 -19 -11 -24 -14 -18 28 -26 -29
right_child=1 12 11 4 7 -7 -8 13 -10 21 14 -13 19 -15 17 -17 20 22 -20 -21 -22 -23 24 -25 27 -27 -28 29 -30 -31
leaf_value=0.043184522457982183 0.27806566384001064 0.05426284274537696 0.048780294386450429 0.063507888592551895 0.14563697799323774 0.13826308155862474 0.049335127978336259 0.25720548656113568 -0.05835003886054816 -0.09775875647201239 0.10159846411332402 0.08913812576495786 -0.098746874268417564 0.1113184601917586 0.0081293776001574742 -0.096702317454635464 -0.096110784229290369 -0.054435260014657677 0.17769434897261274 -0.019730307898450938 -0.019713740993217346 -0.026019305056963277 -0.097756213849060192 -0.10169856916818486 -0.096006242930028629 -0.096287834245887646 -0.098695979748403828 -0.097571311223645485 -0.09504248446328882 -0.096171559820773578
leaf_weight=6.9676001965999594 6.8970532119274157 5.7147675007581737 4.620960518717772 8.7744926214218193 7.5182367414236086 6.0720860511064521 5.7879753559827796 6.4553343504667282 6.787084087729454 3.7061530500650433 3.9593754261732093 5.6295768171548835 5.859797284007076 6.3425656706094724 3.7534217387437812 3.537084087729454 4.3469582200050336 4.7398297041654578 4.8528168946504593 5.0195697247982016 3.7230867296457282 3.9798603206872931 6.805199369788169 8.0500348210334725 12.431942060589785 7.5157366394996625 6.8202823996543884 5.5073932707309723 15.43760511279106 7.6582765281200462
leaf_count=35 27 27 23 39 33 26 26 25 33 20 20 25 31 27 20 20 25 27 20 26 19 20 37 39 72 43 36 30 93 44
internal_value=0.00127324 0.0378785 0.0578507 0.0829959 0.0550838 0.00367057 0.174805 0.113097 0.0488564 -0.0296725 -0.0630851 -0.017386 -0.0452615 0.184905 -0.0746853 0.00803342 -0.0481213 -0.0856929 0.236611 -0.0761805 -0.078193 -0.0816304 -0.0923904 -0.100457 -0.0961508 -0.0973651 -0.0976897 -0.0958846 -0.0954724 -0.0967571
internal_weight=195.272 124.474 100.365 75.2237 57.6858 30.5826 17.5378 27.1032 14.3053 24.5105 70.7977 25.1409 24.1099 12.7979 63.8301 7.49646 19.5113 56.3337 11.7499 18.3951 14.8903 15.736 52.5802 11.7562 47.8404 13.3755 11.1672 41.0352 27.8695 13.1657
internal_count=988 590 463 335 262 144 73 118 66 118 398 128 127 52 363 40 103 323 47 100 80 79 303 59 276 74 61 239 165 74
is_linear=0
shrinkage=0.1


Tree=13
num_leaves=31
num_cat=0
split_feature=9 66 8 7 330 83 46 57 550 100 30 303 694 78 187 307 451 739 167 604 61 49 586 212 647 21 366 38 629 702
split_gain=23.4496 23.7901 19.0326 15.8877 13.837 18.037 13.6449 12.1225 11.7686 11.6377 11.968 20.3371 14.6075 8.75611 11.3148 13.3804 8.11755 6.2447 14.5333 4.74067 8.67744 2.77602 2.67151 1.45372 0.217911 0.00481659 0.00350702 0.00288429 0.00221785 0.00207986
threshold=0.22475617378950122 5.699709653854371 28.784272193908695 -16.323854446411129 7.6263422966003427 17.166056632995609 9.2963066101074237 4.0183331966400155 1.8293755650520327 6.4614744186401376 -1.6742332577705381 -2.0028765201568599 -0.52717676758766163 -1.2868073582649229 -0.34544545412063593 -0.54198330640792836 -0.9657558500766753 -2.7350971698760982 -0.50668683648109425 -0.56320798397064198 6.5650312900543222 3.0546085834503178 0.71762320399284374 -0.27028988301753992 -2.5458772182464595 -8.3991050720214826 0.33515998721122747 -0.39125093817710871 -2.0219147205352779 0.58227223157882702
decision_type=2 2 2 2 2 2 2 2 2 2 2 2 2 2 2 2 2 2 2 2 2 2 2 2 2 2 2 2 2 2
left_child=1 17 4 -3 5 9 7 16 -6 10 11 -2 -13 26 22 -16 -5 18 -1 20 21 28 -15 -14 -11 -21 -12 -26 -19 -27
right_child=2 3 -4 6 8 -7 -8 -9 -10 24 13 12 23 14 15 -17 -18 19 -20 25 -22 -23 -24 -25 27 29 -28 -29 -30 -31
leaf_value=0.1164663682782756 0.21490210850284508 -0.082506313688441218 0.19509557591071686 0.084912525323079052 0.024428374079079218 0.20083810005102781 -0.072277001185993728 -0.006624879174070209 0.24638961997542888 -0.070270691628163184 -0.096312601526465036 0.1243755192194127 -0.098343640380815653 -0.097826586201501892 -0.057666961999587041 0.15435834192126852 0.26162712410804734 -0.099828185206603567 -0.097959407080547845 -0.10034124449854982 0.074488883297866085 -0.022604446409328613 0.0053875587340598292 -0.018355218568211644 -0.097452643977392561 -0.096787384641950691 -0.099935435651129417 -0.10099613413732021 -0.097045882896128269 -0.098482941211490621
leaf_weight=5.8944808393716812 6.8256229758262661 6.827925547957423 6.8668776452541342 4.2348472923040417 4.7807129770517331 4.5370059311389914 3.8698369413614264 4.1875548064708701 4.7742954790592194 3.6416954994201651 5.2412821501493365 6.5794439464807573 6.1030289232730901 7.3718519061803764 4.7496088147163391 7.9724760353565411 6.7311922609806052 4.1001117080450085 6.81588166952133 6.9417518079280844 5.0967988073825827 7.6528314501047126 3.8005736470222473 3.619653046131118 4.7316993325948706 19.221574857831005 5.4509512037038803 4.4644015431404105 9.510672479867937 11.600741922855375
leaf_count=28 30 38 29 20 24 20 21 21 20 20 30 31 33 40 25 35 28 21 37 35 25 39 20 19 26 108 28 22 53 62
internal_value=-0.00182911 -0.0346331 0.0349808 0.0483481 0.0219913 0.00756852 0.0953147 0.138113 0.135334 -0.00486007 0.0142948 0.0699821 0.00930481 -0.0229426 0.0107152 0.0752017 0.193384 -0.0625524 0.00148139 -0.0752448 -0.0427008 -0.0707907 -0.0627158 -0.0685648 -0.0909742 -0.0979615 -0.0981595 -0.0991729 -0.097884 -0.0974255
internal_weight=194.197 102.686 91.5112 25.8514 84.6443 75.0893 19.0234 15.1536 9.55501 70.5523 57.7145 23.1277 16.3021 34.5867 23.8945 12.7221 10.966 76.8348 12.7104 64.1245 26.3604 21.2636 11.1724 9.72268 12.8378 37.7641 10.6922 9.1961 13.6108 30.8223
internal_count=988 536 452 128 423 379 90 69 44 359 291 113 83 178 120 60 48 408 65 343 138 113 60 52 68 205 58 48 74 170
is_linear=0
shrinkage=0.1


Tree=14
num_leaves=31
num_cat=0
split_feature=3 442 697 433 449 476 684 105 652 69 263 291 83 653 430 652 667 114 550 752 289 658 23 129 680 613 739 367 437 694
split_gain=22.7603 17.8025 16.9795 16.5892 14.1101 12.7384 11.6011 15.7159 12.887 16.0637 10.7374 10.6057 8.9102 7.82162 7.80826 7.23011 6.13005 4.83007 9.54 4.11009 4.04757 3.8114 1.89518 0.253368 0.00695779 0.00376663 0.00207589 0.00214951 0.00207571 0.00143582
threshold=-17.479804992675778 -1.7585246562957761 1.2597330808639529 -2.7683929204940791 -0.24475204199552533 1.0248914361000063 -2.8022201061248775 4.8200302124023446 1.5584865212440493 -6.5930600166320792 3.9863348007202153 5.5715200901031503 2.1789964437484746 0.14274335652589801 -7.2719388008117667 1.1978045701980593 -1.161735415458679 1.3205684423446657 -2.6401871442794795 0.26921661198139196 -0.46990512311458582 1.3014054894447329 13.663290023803713 10.159184455871584 -1.1982321739196775 -3.0390719175338741 -0.67688837647438038 -1.4406334757804868 0.83454805612564098 0.11509262025356294
decision_type=2 2 2 2 2 2 2 2 2 2 2 2 2 2 2 2 2 2 2 2 2 2 2 2 2 2 2 2 2 2
left_child=1 3 10 19 -4 13 7 12 14 -10 15 16 20 -5 -8 22 -11 25 -19 -1 -2 23 24 -20 -3 -16 27 -27 -26 -18
right_child=6 2 4 5 -6 -7 8 -9 9 11 -12 -13 -14 -15 17 -17 29 18 21 -21 -22 -23 -24 -25 28 26 -28 -29 -30 -31
leaf_value=0.14965507574812476 0.015259785780374138 -0.10200931976655088 0.22964107603003994 0.21594394425547409 0.014372735135788781 -0.039027838679806401 0.04674458975888976 0.17336587367659353 0.15710809666626849 0.024224577836074623 0.079989222791776005 0.11465374229961392 0.092254265237567842 0.033992208587520577 -0.10065503625408766 0.03917426230551467 -0.098490015278282772 0.087660007756184627 -0.097381951895609248 0.27979651815263018 -0.098052208360349419 0.0018212790130127535 -0.020027195599406102 -0.067155647438095808 -0.096397730861881276 -0.097110664651199483 -0.096881299030733045 -0.099994040138763188 -0.0991854608015863 -0.096268248661900924
leaf_weight=4.6405990868806857 5.2065591216087377 4.1126444339752259 5.5714406967163086 5.1614671945571917 6.7144200503826124 7.9153835028409949 6.0630212277173987 6.4391203969717017 6.4588654488325146 6.3510579168796619 7.5708658993244162 4.5878762006759635 6.1670942455530158 4.3568298518657684 4.3994756191968909 6.2407906204462043 4.9022918343543971 4.7425908446311977 13.97855661809445 5.0867655873298645 7.9902575612068194 5.8620639294385901 3.7863183170557013 3.4595426917076102 8.579670116305353 4.8532565087080002 18.567722618579865 5.5330599844455737 3.8783084452152243 7.1527572572231293
leaf_count=20 27 20 23 21 31 39 30 29 29 32 35 22 30 21 22 29 26 23 77 20 43 30 20 20 49 27 104 28 20 41
internal_value=0.00481252 0.0487727 0.0111703 0.113085 0.111993 0.0547082 -0.0215587 0.0380286 -0.0374239 0.0177639 -0.0250822 -0.021377 -0.00697538 0.132659 -0.0615191 -0.0549901 -0.0552837 -0.0722103 -0.0416213 0.21771 -0.0533471 -0.0679356 -0.0838579 -0.0913854 -0.0984429 -0.0979288 -0.0975146 -0.0986467 -0.0972656 -0.0971717
internal_weight=196.331 73.6155 46.4545 27.161 12.2859 17.4337 122.715 25.803 96.9121 29.4528 34.1686 22.994 19.3639 9.5183 67.4593 26.5977 18.4061 61.3963 28.0428 9.72736 13.1968 23.3002 20.3569 17.4381 16.5706 33.3535 28.954 10.3863 12.458 12.055
internal_count=988 348 227 121 54 81 640 129 511 150 173 121 100 42 361 138 99 331 150 40 70 127 109 97 89 181 159 55 69 67
is_linear=0
shrinkage=0.1


Tree=15
num_leaves=31
num_cat=0
split_feature=0 157 476 525 3 54 8 560 509 191 83 207 4 747 655 195 743 369 96 711 543 15 741 75 147 158 350 572 0 487
split_gain=36.2482 16.371 16.3038 13.5488 12.826 17.1804 11.2063 9.56293 9.45035 9.33032 9.27838 8.26294 13.4248 7.98948 7.1059 9.0433 5.05865 3.20649 2.64974 2.1628 4.1858 1.78882 0.992926 0.871082 0.307005 0.00605085 0.00477263 0.00308747 0.00255683 0.00346539
threshold=45.316934585571296 1.9507199525833132 -2.6773678064346309 1.7796837687492373 -3.5432057380676265 -10.987421512603758 -28.321807861328121 2.3388589620590214 -2.0417060852050777 11.409993648529055 0.52710598707199108 1.1229968070983889 22.530432701110843 0.49489384889602667 -1.5127848982810972 -1.4477736949920652 -0.087135389447212205 9.3581628799438494 5.1480376720428476 -3.1324115991592403 1.2563922405242922 5.6014375686645517 4.5647671222686776 3.8291176557540898 12.4697642326355 -2.5194504261016841 -3.9006031751632686 2.6151165962219243 -40.961458206176751 1.7445998191833498
decision_type=2 2 2 2 2 2 2 2 2 2 2 2 2 2 2 2 2 2 2 2 2 2 2 2 2 2 2 2 2 2
left_child=4 2 -2 8 9 10 -7 18 -4 17 -6 12 14 -5 15 -8 -10 19 25 20 -1 27 26 -18 28 -3 -13 -16 -21 -30
right_child=1 7 3 13 5 6 11 -9 16 -11 -12 22 -14 -15 21 -17 23 -19 -20 24 -22 -23 -24 -25 -26 -27 -28 -29 29 -31
leaf_value=-0.095292208629822683 -0.051334296370240007 -0.10159528327130435 0.021035158160522385 -0.096819115522761623 0.20772575080396471 0.10665224783747851 -0.072400618454146901 0.078761834077982748 0.10183785050087626 0.085074075523596443 0.0082208099443354232 -0.099535909584733462 0.11114942553464176 0.10562041839078591 -0.09539083474722565 0.14210609383106873 0.23642011490096457 0.013265643805801378 0.0016299437750035691 -0.095029982657415454 0.045639876021688258 -0.02738058047203808 -0.036756274954918747 0.18837967005338518 -0.063667529563279174 -0.096260553123771575 -0.095549661685884746 -0.098798723771095567 -0.095755236662663168 -0.098786640072686782
leaf_weight=5.2907896637916547 6.1581781953573218 4.06901615858078 3.968311399221423 3.6425019055604926 5.2930359840393049 5.842239335179328 3.8293113261461258 6.963909611105918 5.0003373175859478 3.7232815176248542 4.1657877862453461 3.7894875407218995 7.383453130722045 4.194453701376915 9.0233363509178215 4.0377084612846366 9.4770174622535688 3.581811547279357 3.7970784902572623 22.703656777739521 3.5026498883962631 5.3165642917156211 3.2975420206785193 6.2724935263395301 3.216469168663024 4.4528187215328234 14.481082469224928 3.7688552290201178 13.356587320566183 5.2546589672565451
leaf_count=32 33 20 19 21 21 25 21 32 21 18 19 20 35 19 54 19 34 20 19 138 20 28 19 22 20 26 86 20 79 28
internal_value=-0.0054293 0.0603791 0.0978758 0.126101 -0.0345954 -0.00550619 -0.0250197 -0.0149016 0.162426 -0.0682898 0.119861 -0.0390247 -0.00783793 0.0115295 -0.0416593 0.0376939 0.189466 -0.0783241 -0.0678497 -0.0844762 -0.0391554 -0.0761329 -0.0872611 0.217287 -0.0934255 -0.0988078 -0.0963764 -0.0963949 -0.0957422 -0.0966111
internal_weight=188.854 57.9961 38.7133 32.5551 130.858 70.2284 60.7696 19.2828 24.7182 60.6299 9.45882 54.9273 33.3592 7.83696 25.9758 7.86702 20.7498 56.9066 12.3189 53.3248 8.79344 18.1088 21.5681 15.7495 44.5314 8.52183 18.2706 12.7922 41.3149 18.6112
internal_count=988 266 169 136 722 367 327 97 96 355 40 302 177 40 142 40 77 337 65 317 52 102 125 56 265 46 106 74 245 107
is_linear=0
shrinkage=0.1


Tree=16
num_leaves=31
num_cat=0
split_feature=3 10 702 653 4 133 181 64 733 404 164 107 309 37 540 557 445 490 615 247 52 519 310 139 569 46 26 1 371 52
split_gain=25.4203 18.5194 14.859 14.9673 21.2843 10.2504 9.56817 11.1596 9.27107 8.97799 8.22547 9.81487 10.9556 9.16841 7.61378 6.17677 5.08519 4.85782 4.588 3.00307 7.05766 2.90383 1.6129 1.08018 0.941483 0.828381 0.244546 0.197778 0.0101103 0.00196733
threshold=-4.4207551479339591 -12.529634952545164 3.0932039022445683 0.63158798217773449 -7.1710979938507071 -3.4331792593002315 -2.032981157302856 -11.059136867523192 -0.75478956103324879 1.1616954803466799 -1.4083763360977171 3.828201532363892 -2.0592222213745113 1.0087746977806094 -0.64247402548789967 -0.022688214667141434 8.1040363311767596 2.9841308593750004 1.0928401947021487 -2.8253866434097286 2.7696241140365605 0.44943434000015264 -1.1041765809059141 8.097994804382326 -0.066199257969856248 -7.5833387374877921 7.477020502090455 4.2062039375305185 1.3414721488952639 0.11679221317172052
decision_type=2 2 2 2 2 2 2 2 2 2 2 2 2 2 2 2 2 2 2 2 2 2 2 2 2 2 2 2 2 2
left_child=1 18 3 4 5 -3 7 -2 -6 21 25 12 -12 -14 -5 24 19 27 26 20 -8 -7 -10 29 -16 -9 -1 -4 -24 -21
right_child=6 2 17 14 8 9 16 10 22 -11 11 -13 13 -15 15 -17 -18 -19 -20 23 -22 -23 28 -25 -26 -27 -28 -29 -30 -31
leaf_value=-0.095957978065931662 0.14287006031504287 0.00074482391664341767 -0.070255532392138276 0.05959618391650584 0.05578799729837617 0.2460172302679709 -0.094557908136429114 -0.040534672213651583 -0.022335874303503148 0.035205409658104141 0.17000484587492237 -0.084006800731605269 -0.082086953635883364 0.11140990354997377 0.18933920825165851 0.091745919764183545 0.03877412324846527 0.047756220691867121 0.026397472648881759 -0.094475040155213366 0.060337018356508468 0.14450237059039903 -0.096227878512051002 -0.035138386197722707 0.24805630898765837 -0.097229626790147849 -0.064207906417649771 -0.10120194084729124 -0.10243615405927115 -0.0960527300702856
leaf_weight=9.6013968288898486 4.8039170056581488 6.4668342769145992 3.614849776029585 8.8734364062547701 7.922101393342019 6.0073542445898074 7.27918992936611 3.5103581398725501 3.6898057907819757 4.801634967327117 5.7703053504228583 6.7346002906560889 5.9654320627450961 4.1539018750190735 5.4743222445249584 5.913864240050315 4.314004808664321 3.8398165404796591 4.8289610743522635 16.580612629652027 4.9365450590848923 5.3072322905063629 5.5217828303575498 3.3035761266946784 5.448775425553321 9.6943640857934934 3.2460289597511283 4.8173709064722061 4.9969670027494431 15.103334531188009
leaf_count=56 22 30 20 39 36 22 45 20 18 21 26 36 32 20 21 26 22 18 27 103 25 21 32 20 20 54 20 24 24 88
internal_value=0.00138933 0.0362062 0.0560654 0.0737603 0.0388025 0.107102 -0.0365342 -0.000251161 -0.0308927 0.149779 -0.0194407 0.0171643 0.0600443 -0.00265811 0.134557 0.174062 -0.0651516 -0.0454786 -0.0567016 -0.0746495 -0.0319628 0.198401 -0.0792223 -0.0895534 0.218629 -0.0821578 -0.087936 -0.0879354 -0.0991771 -0.0952271
internal_weight=192.523 100.373 82.6961 70.4241 44.7137 22.5831 92.1501 40.6329 22.1307 16.1162 35.829 22.6242 15.8896 10.1193 25.7104 16.837 51.5173 12.272 17.6764 47.2033 12.2157 11.3146 14.2086 34.9875 10.9231 13.2047 12.8474 8.43222 10.5187 31.6839
internal_count=988 475 372 310 204 94 513 210 110 64 188 114 78 52 106 67 303 62 103 281 70 43 74 211 41 74 76 44 56 191
is_linear=0
shrinkage=0.1


Tree=17
num_leaves=31
num_cat=0
split_feature=5 3 6 125 416 522 63 477 423 668 656 245 724 521 642 625 7 673 574 620 482 329 277 187 37 29 37 368 460 678
split_gain=38.6997 16.9548 15.119 12.3594 14.971 11.8331 15.0529 14.1569 10.3861 8.16474 7.81171 7.77615 11.5477 7.72466 5.70339 7.93721 5.48879 7.57834 4.2601 8.25877 3.70429 3.15742 3.09401 2.96521 0.769865 0.271168 0.00474962 0.00312902 0.00147781 0.000920414
threshold=-1.942032992839813 -39.556095123291009 -12.923017978668211 -7.1392343044280997 -0.94615820050239552 0.40491431951522833 0.77031701803207409 1.6265341043472292 -4.6564311981201163 0.054831760004162795 -5.737492322921752 3.1192833185195927 0.027041194960474971 -0.32277868688106531 -2.4693704843521114 0.70255598425865184 -24.920673370361325 0.30881777405738836 -0.92455184459686268 -0.30580595135688776 0.052921852096915252 -7.0397174358367911 -0.9630826711654662 5.015200376510621 -10.670668601989744 7.2198081016540536 5.9503948688507089 1.4417882561683657 5.1558670997619638 0.91815131902694713
decision_type=2 2 2 2 2 2 2 2 2 2 2 2 2 2 2 2 2 2 2 2 2 2 2 2 2 2 2 2 2 2
left_child=10 23 5 4 -4 7 22 20 9 -5 -1 14 -13 -8 15 -10 17 -12 19 -16 -3 -18 -7 27 -23 26 -20 -2 29 -26
right_child=1 2 3 8 -6 6 13 -9 11 -11 16 12 -14 -15 18 -17 21 -19 25 -21 -22 24 -24 -25 28 -27 -28 -29 -30 -31
leaf_value=0.038690224401861956 -0.098692907655558104 0.14537852880975219 0.24353931715988889 0.1838137567316282 0.014325012620322673 0.01270670428438431 0.031229430327435512 0.031920135017345058 0.11436253361799818 -0.0065227124139540351 -0.095990807171767237 0.12141160263497736 -0.077251502397085337 0.20218216391243132 -0.099074948214117733 -0.075322699093854653 0.001896018805410387 0.10626799819516475 -0.097276683402916439 0.086071502699024874 0.24862987692101435 -0.051015626021049643 -0.1025387070685502 0.0084543385089801328 -0.093945131859949835 -0.067162583744027698 -0.10123496301574611 -0.095220391112703362 -0.096111714203903631 -0.095014104012440134
leaf_weight=7.1401455700397483 5.2395997643470746 6.0687052458524731 4.9961714744567871 5.0016306787729246 6.6319098472595197 4.1516472548246384 5.0029978156089783 7.1459525227546683 4.8518036156892688 4.1021006852388382 3.5844697356224051 8.0677039474248868 4.5908737778663626 5.6037698686122877 5.021880567073822 4.0452252477407455 4.0114746242761603 3.8339357972145081 10.389074638485924 4.6310081332921929 8.1289446204900724 4.4967650175094596 5.3079494088888186 3.5905141681432715 27.761113725602627 3.4199336022138587 4.2803920209407798 5.1409050822257996 4.8161477744579306 11.346969619393347
leaf_count=35 28 23 19 20 32 20 22 32 21 20 21 34 25 21 27 21 22 19 58 21 30 27 26 18 177 20 21 31 28 69
internal_value=0.00118757 0.0339662 0.046985 0.0186611 0.11281 0.0948845 0.0397534 0.146716 -8.45253e-05 0.098049 -0.0601757 -0.0182066 0.0493627 0.121547 -0.0415512 0.0281181 -0.0719703 0.00853937 -0.0638944 -0.0102503 0.204496 -0.0833612 -0.0519596 -0.0698786 -0.0904244 -0.09252 -0.0984317 -0.0969732 -0.0944588 -0.0942553
internal_weight=192.402 125.411 111.44 70.0297 11.6281 41.41 20.0664 21.3436 58.4016 9.10373 66.991 49.2979 12.6586 10.6068 36.6393 8.89703 59.8509 7.41841 27.7423 9.65289 14.1976 52.4325 9.4596 13.971 48.421 18.0894 14.6695 10.3805 43.9242 39.1081
internal_count=988 590 513 339 51 174 89 85 288 40 398 248 59 43 189 42 363 40 147 48 53 323 46 77 301 99 79 59 274 246
is_linear=0
shrinkage=0.1


Tree=18
num_leaves=31
num_cat=0
split_feature=69 15 49 66 9 470 154 490 114 225 644 748 0 128 182 20 536 168 265 14 415 661 702 258 567 3 376 100 207 23
